[
    {
        "b": [
            0,
            0,
            0,
            0,
            0,
            0,
            0,
            0,
            0,
            0,
            0,
            0,
            0,
            0,
            0,
            0,
            0,
            0,
            0,
            0
        ],
        "w": [
            [
                -0.23927501224571232,
                0.8054753053164078,
                -0.3437987417112196,
                -0.032475280138143284,
                0.11674731559039052,
                0.18777054599925827,
                -0.18102431195486995
            ],
            [
                0.06440488672705616,
                0.43888123048416555,
                -0.48474424233744845,
                -0.02759016922907139,
                -0.4636526401587584,
                -0.002782999524471592,
                0.6173937260278742
            ],
            [
                -0.08465060029291041,
                0.18669466951839805,
                0.5809438619545683,
                -0.5927615730894605,
                -0.6300346638061495,
                0.2473023600790735,
                -0.3829624002898167
            ],
            [
                0.06377180824897107,
                -0.23370082532988726,
                -0.3272532609305771,
                0.6070539831040084,
                -0.35664570930923156,
                0.42880522734949367,
                0.10916071706253992
            ],
            [
                -0.35452801489220037,
                0.10063082382707637,
                0.11364236411026386,
                -0.053533175874124296,
                0.09629762892003127,
                0.244326160871503,
                -0.1897286677676197
            ],
            [
                0.45436445236927075,
                -0.7717078283923682,
                0.2515131057547762,
                0.5367169826403194,
                -0.009535229529015166,
                0.3068650340202902,
                0.7526609926711293
            ],
            [
                0.005987805654333104,
                0.22287286957016045,
                0.15325214873815252,
                0.33854412021546426,
                -0.11914019608187548,
                0.04851292777831864,
                -0.4100506325442197
            ],
            [
                0.19666840711405364,
                0.6063666692420553,
                0.3447854329782232,
                0.11958851843356112,
                0.04892886726674969,
                0.06840539375859075,
                0.2744447794019421
            ],
            [
                0.6046820986860966,
                -0.2315451482017858,
                -0.8280247693065841,
                0.337832734740552,
                0.14113336787083172,
                -0.6245745552179398,
                0.4122948267741783
            ],
            [
                0.6665314968257473,
                -0.3361671064819934,
                0.1230026499305577,
                0.2756466888827944,
                0.43779911376351616,
                0.09795018663906527,
                0.48278152434552235
            ],
            [
                -0.4851678521606482,
                0.47389580054974517,
                0.2785840883068466,
                0.18821649336416943,
                0.08608075148249192,
                0.274849173234534,
                -0.6659721018668361
            ],
            [
                -0.05691523819640677,
                0.09075258099021866,
                0.4675409221302356,
                0.021793888474823542,
                0.18851007536269776,
                -0.164874359632769,
                -0.024695390626219577
            ],
            [
                0.2812349618711876,
                -0.0730777676017834,
                0.3049292555012106,
                0.1058659222210307,
                -0.22621331746408066,
                -0.44483954142306764,
                -0.3747352389670718
            ],
            [
                -0.033594445505475114,
                -0.6438983049687345,
                0.2352784650821631,
                -0.26312629632965456,
                -0.7003441796528684,
                -0.19176100414302982,
                0.12108044487439366
            ],
            [
                -0.8985658723933343,
                0.11743877323479962,
                0.3244195214680827,
                0.37934483791360063,
                0.5259614074908049,
                0.5001177288181519,
                0.6436465178366851
            ],
            [
                0.02397187777511496,
                -0.21640657247188735,
                -0.15380857848929688,
                0.5263289395198901,
                -0.20148031084564025,
                -0.07017086615922129,
                -0.3575068327387102
            ],
            [
                0.20350939018304107,
                0.22326456538580608,
                0.23832971557694618,
                0.1417896093644062,
                -0.4157783229454985,
                -0.6254819808208469,
                0.06195483610782004
            ],
            [
                0.11237161952873605,
                0.010747356061899733,
                -0.06779591137476627,
                -0.1701522790393974,
                -0.1789830605639947,
                -0.04187578419853382,
                -0.17834848209332488
            ],
            [
                -0.38115720345453935,
                -0.3609779770330965,
                -0.0038150471912788554,
                -0.5811297752710068,
                -0.3312263127347259,
                -0.1883942350220416,
                -0.5077534127682813
            ],
            [
                0.6711761931936248,
                0.778608645150425,
                -0.2765774548885685,
                -0.12894890900119582,
                -0.11903007244441817,
                0.13218221719951287,
                -0.28029130871942237
            ]
        ]
    },
    {
        "b": [
            0,
            0
        ],
        "w": [
            [
                -0.28106147315353536,
                -0.32739074810730434,
                0.2209185766897711,
                -0.35969812282890157,
                0.15562645573671535,
                -0.15020984948604457,
                0.3208738460528831,
                -0.06831607741893064,
                -0.5117720902422515,
                0.3082623911602429,
                -0.05215899469483781,
                0.4590353360125049,
                0.19902133598525074,
                0.2610888450396562,
                -0.07553338931678538,
                0.03968817166600369,
                0.2911365534444572,
                -0.008879791156314598,
                -0.2584929012105551,
                0.07718223433803649
            ],
            [
                -0.27741224632737727,
                0.026336439534599975,
                -0.15202965192035875,
                0.3098127052944345,
                -0.2757384299965388,
                0.11864148160696654,
                0.05805934382734554,
                -0.038531401297577116,
                -0.12333142673875618,
                -0.21090797146316637,
                -0.047850282098116,
                -0.3365652802278619,
                0.2379540480508536,
                -0.0886235734023441,
                -0.04924170672934611,
                0.5688065495905709,
                0.20852257215751782,
                0.08003006017971952,
                -0.04279435292935613,
                -0.1957030994423021
            ]
        ]
    }
]