{"activations":["relu","relu","relu","hypertan"],"layers":[{"b":[-1.1461615163335837,-0.32410574021902894,0.11018689762153121,0.158743882680727,-1.9290746712735127,0.5054153300685773,0.11112293822413977,-1.303651160881886,1.8840909415075358,-0.573048957373924,0.752374579302995,1.8997173949677686,0.21587559011031263,0.8306530886429313,0.6857257780071706,-0.2855314244830016,0.7269172177870435,-0.7773251837562389,0.6455192903236475,0.5150115264155277],"w":[[0.26745724868838944,-0.47800608846020287,1.1206967014089944,0.2356074400861621,-0.694321133917575,-0.3253121325337025,-0.41633351369242055,-1.0692629612175648,-0.129159175708528,0.4813725488053523,-0.5759826312692259,0.5684490005991344,-0.5889650712790349,-1.1972052004003466,0.21801268452237535,-0.6556075481422647,1.313129263311145,0.15809970802320333,0.6699484470486702,0.14019601500322576],[-0.09234144972992708,-0.09598214059958651,-0.2261183486589456,0.2806717894259088,0.2448601216688705,-0.4624720787019859,-0.16197347612674895,0.49109465768967864,0.3269148017303962,0.47964724022069977,0.8993189562792532,1.0435414657897375,-0.2751549191225199,0.46336559055780513,-0.7216691996901087,0.20809322634076438,-0.3811286596855792,-0.020642968197317677,-0.05169436357797658,0.4183808405678],[-0.47380996796908825,0.057048392207603965,-0.4644249154178938,1.0028110567342845,0.26419187531737587,-0.11011243260029263,-0.4226819488085434,1.0516202021190457,0.06884854275284823,-1.04373225852521,0.7230669462681787,0.07648034186964432,-0.011378387106575872,-0.058538404351900275,1.444737746664916,-0.6619048260757834,0.08406257341596862,-0.09272919624832321,-0.38613030744583826,0.9768425941846526],[0.14718005728187641,0.09325450190239859,-0.14388491200934522,-1.9389679065810694,0.862775973760594,0.1564868684243093,-0.9548570237917451,-0.8185336969309323,1.0376258405046497,-0.23934237358906396,-3.051309698422295,-0.26694230750761694,-0.6787813826824376,0.8295198689306847,-0.03726100825613318,-0.46816553123304483,-0.0991169626352273,0.3450657721103992,-0.31732008438189196,0.002622366122219302],[-0.006062943715644975,-0.07357613835935947,-0.6949659473125465,1.5110366290038117,-0.7831292059101007,0.37249311134387586,-0.7659035559581608,0.3528893415865384,-0.10576614191556477,0.19209135141737835,0.4879029410520357,-0.17716515257739318,-0.4872947503739751,0.25860335008868407,-0.6507947471195314,0.28698358583007305,1.6403634105731877,0.5227509849843539,0.7283839630014033,-0.1332953686377807],[-0.8109233207550919,0.011472031031328865,-0.05866851932706141,0.10076898241407592,-0.5187136065091363,-0.13772370545263563,-0.650034094637821,0.3343877325050236,-0.04432223684241646,-0.23318950663719198,-0.12909584865272103,0.049482055587138286,0.122474457204122,-0.017887347458184145,-0.0974081035426122,0.02601869075159703,-1.6443868233833763,-0.22459746436799538,-0.8145781404935453,0.10163604447519044],[0.5641004521165722,0.3723415883079038,0.1269675544866928,-1.0327604773004802,0.03080235603960855,-0.5236308245520498,-0.18878892729438562,0.012765364492815623,0.397294924721986,0.0020799612648835916,0.8178539551490904,0.6560766401529625,-0.5369808846786315,0.12271813188959313,-0.10267609079249464,0.35067956064363304,0.3218073575208063,-0.19608935502469754,0.11695942407551371,0.24743860506930462],[0.04332765310602811,0.6725135524921917,0.005831994346932429,0.1714331780436965,0.3585670544004022,-0.23533439444766657,-0.12543898852256097,-0.11622190604590227,-0.5015438209999064,0.655121362208966,0.025317247153806233,-0.16048717578696708,0.340679334764294,-0.05021192395663987,0.6673782500531862,-0.39743595388539166,0.08045096017897552,-0.3274043909858468,0.20779759911578846,-0.33585485736958076],[1.0272876248932001,-0.16041314994675035,-0.2022671805116934,0.08904264836289529,-0.021890014093718685,-0.014186507145824825,1.0666756318350616,0.31545016777997537,-0.9006561747340243,-1.2487072309943719,1.4078143413083335,-0.4477702579615686,-0.006260253028868092,-0.0405269392621496,-0.4314173662273316,1.2169292207847249,-0.2496591891970874,-0.31479972126486844,0.34964952170511543,-0.1653873520769926]]},{"b":[-0.22115947544718584,0.8024273376622119,-1.0011020332806915,-0.6548472258307705,0.08340481684594743,-1.5079756997945155,1.524388223656215,0.6688234837371452,0.7257082551914804,-1.0284593542005511,0.13536325898374651,-0.2548378545010632,-1.039420934708704,1.7275100840932702,2.5573563158201136,0.13397735405359387,-0.7876606863419313,-0.5849431912629557,1.759218084161287,0.7344715907443956,0.013767567591652208,-1.0165794947959745,-1.8953152429752917,-2.594489082205855,0.4904110361954861,-2.22258206497151,0.03126953204067051,-0.07583210727761208,0.6529595463374007,1.116758063805669,0.6224373252321534,-1.1995903331702258,0.9871427840978132,2.11399994081973,0.5712268226252495,1.9359505451980918,-0.27758347759961,0.15502661133025863,-0.6743731330548932,0.8888052553318486],"w":[[-0.46416946952553384,-0.31355029529730216,-0.07599705949953929,0.01405849624256385,0.4824292506789454,0.06777960171870372,-0.6161359506363602,-0.05292331224752013,0.09021487762278442,-0.740015740592492,0.37664476156973686,-0.2616523732819068,-0.5449397339910105,-0.09091747010723156,-0.1312188895419568,-0.7721313219381081,0.16923699402507192,0.043418214183908316,-0.043942766279211475,0.15521371757381716,-0.2907751233030086,0.3657336666996721,-0.5548057510624811,-0.07801491091491626,-0.1626335062054912,0.7132928314036748,-0.9235611134603613,-0.17525428696878875,0.14483808806193166,-0.5635132581341012,0.6080092800974707,-0.010907193957055993,-0.4616447432262025,-0.5795162348135058,1.0991394633777933,-0.22341883607441665,-0.10704097995792333,0.3568400841464623,-0.0067431621905833655,1.6443621299121571],[-1.004662383262052,-0.34414774005801746,-1.05952748406818,-0.2331510853977862,0.872435234570945,-0.6964159167975756,0.1200182670211617,0.03868525304156623,0.008912405647530116,0.4787544033855773,-0.03137870835683671,-0.07596837536975544,0.01647113196747843,-0.15063940672165207,-0.07355314606472024,-0.04548308278134005,0.10440804512031548,0.7711888720664666,0.9403330656667852,0.8190825252051439,0.11897257523355631,-0.6709188214483884,-0.2556960762831753,-0.09302166366241335,0.4214374680213594,0.11623668371444373,-0.12003401600979423,-0.10878219017390625,-0.4997534344130329,0.12844865446889764,-0.7935694157283264,0.8766345020717166,0.3920478769108832,0.0636803142873583,-0.21177742140851888,-0.5911648707069004,-0.8413007953001115,-0.14215022750297718,-0.841692342442148,0.17972657730872854],[0.9500247490430189,-0.2195114094320359,0.06732939983856445,0.8426533186930629,0.514871056053338,-0.27540067326479944,0.4053465917565287,-0.019078311992865114,0.0445810880324326,0.1987660332098114,-0.2555351571615503,-0.21246532804393564,-0.05773191220397056,0.31007279872586047,-1.4716620382573822,-0.9702623801649464,-0.08626289320615158,0.23999206785633098,0.643291248110398,0.41029588537588746,-0.18236406124602403,-0.019459201564109754,-0.4836262564036567,0.1516000202680023,0.06334621341737874,-0.017173255862217945,0.6249195881845075,-0.20109608488924066,0.23286524005163378,0.25201718332231526,0.04842501542045666,0.5879477181834131,-0.3863390431332974,0.06531706352064068,-0.38525441424259044,0.7717139266162337,-0.05234586635878156,0.19253520459808895,0.10503828275708516,0.7119824362479628],[-0.06953168535002421,0.2791580808739436,-0.7564790898543639,-0.7921846025589379,0.03899258645744386,0.5160551669732034,0.676195787478454,0.2785135170008295,-0.1251760396228027,-0.0932371579802257,0.4242746764703378,-0.15210549311126575,-0.7064065272611499,-0.021724036374053846,-0.8019059443816825,-0.22823033556886896,0.039028243522946246,-0.16921253354521085,0.33196578674742794,0.22058923952920828,-0.31201474214925,-0.0027714366852784537,-0.2778058163165873,-0.2465502847439485,-0.1700822774041687,0.21425888086761866,0.4531756538390442,1.0430074061298793,0.7600008475704,-0.08261702226162194,-0.04132167878816616,0.9258849105288766,-0.33083136286046694,0.411499841132436,-0.07806527816375196,0.04236344420634487,0.7920505390718375,1.0573349532817775,-0.33476090683772813,-0.029093061331984162],[-1.4857729458565971,-0.06832299536434669,-0.07028801108858536,0.6791051338550494,0.027017508790790342,-0.49634271938432933,0.07954613194665469,0.6775755263634663,0.35029977227577325,-0.050723669973890814,1.6104389402200487,-0.095493082368349,-0.18047813671099724,-0.17187428893263268,0.016767389907422225,0.0624364472020349,0.8983825438876927,-0.22254046961704577,-0.14350283647633713,0.7317680014253729,0.07785380962768904,-0.02116772124228321,-0.13619639301366637,-0.7239292163512909,-0.5068151245127975,0.23665892546940848,-0.1160772713367621,-0.04989755854220086,-0.3247159769471768,0.1276171930916435,0.3376368956739057,-0.49404544273953727,0.12450933276300909,-0.5840352479201335,-0.3003856274812319,0.06285406747928196,-0.4366714425989847,0.15765671404076334,0.13406119217049023,-0.4094840492445349],[0.3267282036250683,0.7324488842264134,-0.21319026500647645,0.07366654825581587,-0.3970407578157064,0.47356668977173194,0.301059610798979,0.10998159963594845,-0.24241721083423162,0.0523598223264678,0.18948350937707653,-0.1820279670079476,0.24099871678907012,0.5940923422782157,-0.4861646411517569,-0.17338451727481013,-1.4895394024716329,-0.5728798942135404,-0.6624008832762399,-0.39233065814392387,-0.4063452914823232,-0.5997457100120657,-0.21130019001731046,0.4468987638172497,-0.0768587734735964,-0.1773305555602741,0.03596185445673571,-0.17061967547975396,1.2767193525902576,0.08656664439509609,0.26687496804002936,0.4532373021645356,-0.4076952233006314,-0.5326207081525791,-0.14365475090554136,0.1545701801308618,-0.36605895587234843,0.16525016139284088,-0.41196947167413545,0.31694359113196724],[-0.03500038137292531,-0.3564174547661199,-0.07121964127833662,-0.32466622025541936,-0.1570296865994241,0.4888233795667145,0.7706991014069958,0.3954477848891608,0.10577500553299099,0.4352623444721334,0.4656485541533013,0.12645366254575416,-0.11153530929137327,0.3994462895630412,0.23081984914446207,0.1202508765526694,0.15623293000842728,0.4682536268196713,0.21723302753976662,1.0667527559420933,-0.27127872448951373,0.04587569488043758,-0.3780896376313988,-0.5108158865539465,0.10386750473634027,0.47526466472830314,-0.34607903887321034,-0.034428498819385256,-0.3838453878831845,0.202406919643846,0.618750005366975,-0.046724325676213666,0.03176899462794083,-0.9667523935869147,0.1690668499816774,0.1169121525111914,-0.3529231879570166,1.8820029724449463,0.23238745380606873,0.30898629677253614],[-0.06935832393036262,-0.5243130623095816,0.20186659081893074,0.3173521727082303,-0.05825631459378263,0.43754235285887794,-0.5270371604475299,0.21190684687404596,-0.03327071883056865,-0.38810475262602584,-0.08705179415838205,0.7736992880128379,0.06923720572439011,-0.1308596584807213,0.2144441483490172,-0.8545725075823157,-0.9865098704043034,-0.1601264524935089,0.02516961080608819,0.6629541318713298,-0.47871173180440335,0.3058822980550002,-0.30806064512152764,-0.0739152611849617,-0.3487815157685128,0.04579676655074342,-0.08033009220310164,-0.21653908538639477,-0.18082528993108096,-0.5463919555986837,0.8717020477755837,-0.0019492543108563783,0.2849768760200269,-0.6187389811880702,-0.10232537699054446,0.6024184735638586,0.21841349126691068,-0.5445615206149502,0.1149224047296291,-0.6877316674235958],[-0.12778012212918538,0.7418034731380305,-0.03771864040384608,0.3302563585889449,0.8487369293952138,0.16924182790040931,0.6040353625666537,-1.0554635810986344,0.11049796180521472,-0.4559252738008308,0.18669287503418253,0.3107938136170762,0.7309378774116183,0.14321976545327858,-0.45456733930296894,-0.09758280351367632,0.14487265621082737,0.16075826655886039,0.3358306002855613,-0.09193873326241912,0.017093728918398676,-0.4212558823050586,-0.8736453472876029,0.6551766017234699,0.06734404326919002,-0.5107099776881663,-0.046045804571371356,-2.1659850824491294,-0.14577549402157738,0.10014968029244081,-0.05438772856736759,0.19009817656509384,-0.3382013587169654,-0.6627230838397374,0.4674040662767119,1.0173600781924717,0.23693570743071932,-0.16772969507597102,0.9326325777567015,0.38751006925839004],[1.3927757253194424,-0.8654618754758292,0.30956763896070116,-0.7703683535279846,-0.039059511625074886,0.5651212239790464,0.2886772271775144,-0.7107517082769153,-0.11252894712782759,0.24682287918191326,-0.17123851541342902,-0.12977739374481959,0.07681986875481714,-0.32362504384839813,-0.2552535004394353,-0.23463186363656754,0.12628925396399693,1.6885534252066015,-0.3208598008736639,0.3676769841987819,0.6672716226294557,-0.6200090964354122,0.1346127285115124,1.1097923233720564,-0.5844966545765209,-0.5748413091857965,-0.6606865207102863,0.5095637465336063,0.23667851444576818,0.1864369769089775,-0.501569463045364,0.2703585031302029,0.15212847583974023,-0.07604902766818544,0.8107410803355508,-0.28392139348912326,-0.04563673321789381,0.054588563131433496,0.28554584363063024,-0.056195098265311716],[-0.18061099265600433,-0.12387298156360643,0.18280058603658206,-0.1404857833106262,-0.6715197594033809,-0.9148875971613328,0.07558844966008922,0.30404722100507736,0.09387163191677313,0.012956229875715042,1.4028700328170765,-0.38772298564384866,0.10173448964359443,-0.16430181373848418,-0.029290984565059464,-0.3327584503048363,0.12496900894074232,-0.03810032823219698,0.027135076576485305,0.29560727226151157,-0.5590020039172386,-0.13707479306210132,-0.5656031256133911,0.0482046608606328,0.027730454379099507,0.18127612758477246,0.009801037210856935,0.017808785021803844,-0.11366073188575099,0.10812446577172248,-0.3180840849842176,-0.6272194259621762,-0.06694870515806398,0.13457752450195926,-0.15951587896743932,-0.07059183859428299,-0.38387750699736134,0.2224253264363248,-0.07869155363014184,0.23778628070283775],[0.1509974309444775,0.3890249191046175,0.33119075801608766,0.05040398688331284,-0.24478115626776184,0.8890478103192778,-0.02095431413921998,-0.9923557440761979,0.3247793496167113,0.15104926900573845,-0.23982827780666258,-1.0873364911674033,-0.013206117166638918,-0.5424266650239149,-0.6219379436680043,0.8211038943588843,0.35417280414701385,-0.40578375052756654,-0.14061640972272574,0.058305005073858135,-0.3304147186320328,-0.0993943339247228,-0.8096717751337942,0.47283164450060267,1.0199535493320928,-0.758404389557586,-0.28191282934751455,0.5448495410960459,-1.2981330035972936,0.2877778969272395,-0.7057169449343978,0.2795656433314453,-1.132232584935684,0.06738025370951901,-0.13630953165660165,0.878139552691334,0.031243442352430484,-0.048061495574929974,0.26980562467794195,-0.10174410069488204],[-0.6768501691918648,0.2287190952612128,-0.19194124920239247,-0.20983791986604816,-0.28413954835510524,-0.3686498390749078,-0.24750873184818464,0.13605052934278142,-0.08919645046343792,-0.037734681432452136,0.4535974434371136,-1.0003649364477005,0.43187981791732905,-0.1317038362967033,0.13141258463466943,-0.16228800781626343,0.3421051346935889,-0.12014866926001977,-0.594777818200773,-0.15711452341956428,-0.45671210594780687,-0.11329815286361394,-0.04208563196423251,0.3864571915929476,0.021230021031200707,1.2678074853055787,0.2001936192866152,0.25368583477844664,-0.017040696792989064,0.05487708915840629,-0.4949468432925427,0.16493012600202506,0.294542958233427,0.2158111417153344,-0.12310826693941451,-0.12862596639775756,-0.5993989119118612,0.5795545051546861,0.1989399881794689,0.6857759545140292],[0.2366606846827295,-0.7298349017674373,-0.514190644194161,0.5452784225361205,-0.03828603485379567,1.5761245229018093,-0.038501982932719336,-0.142080503790739,0.1282598092594913,-0.029716236250909828,-1.014601639660131,-0.04111646966083866,0.15566318498566284,0.14143424018536244,-1.002286479813896,-0.2713536541488091,0.13597586773769033,-0.06855190162706513,-0.19417239213384874,0.062413060038530865,0.5073509303488059,1.750761177699844,0.20455477511228076,-0.13990477863795045,0.10121297971699193,-0.21894391854223128,-0.1302091428237445,1.1514858792403124,-0.5713811495503405,0.4364177169804365,-0.007261108610524175,-0.08442841525153807,0.10901408823464964,-0.021704897574654318,-0.09390046231146582,-0.8248798602271629,-1.195015930907599,-0.042725080431436406,0.6616896210651195,0.09896221030003963],[1.1802291511059644,-0.6238832870318674,0.8407706161884322,-0.23877978564802288,0.4257608815154282,0.3026427646309683,-0.20007409373732132,0.41106942265945356,-0.07957701227366529,-0.26343582695756823,0.08985131806960972,0.6025460747452,-0.8790500078032825,-0.26012790499337063,0.06571685457488388,-0.737556836794565,0.07136169434334708,0.2135681120674979,-0.02513434377785921,0.5150900374850665,-0.10914156935309861,-0.2639870856833465,-0.5347525343547321,-1.2243701094456236,-0.8226974884328745,-0.5171911399673216,-0.1252279501414324,-0.45969970733445703,-0.11943827743300295,0.07953972997948812,0.05479849271811068,0.25449354782963673,0.8669877727300828,0.21564341989740782,-0.46163285153489814,0.37485021649049466,1.5497217966556351,0.07861151418209189,-0.666607823408315,1.2041652816094808],[-0.6932647852114053,-0.3942715172112253,0.010833917125596395,0.3091852782305476,0.004423106114985985,-0.7385033180880682,-0.142172334168071,-0.27118218699355723,0.828540635448296,-0.34943130963754054,0.09763250343970846,-0.003059381703672808,0.09827053094065095,-0.06749356147711019,0.6772091041361088,0.27871153204071714,0.10552894624188847,1.609654288234261,-1.0265763946553565,-9.677280806041355E-4,-1.1792142437969704,-0.050512830276889235,-1.3412953322590524,-0.7240718772453555,0.6230299587013833,0.44308962664789914,0.10213123447347301,0.22534879338682764,0.116159448260098,0.35188797067192334,0.1562994470623007,0.7363887660142739,-0.020981658659170014,-0.11769376385606306,0.6615069828889476,0.5666254565000255,-0.2909492701251887,-0.007607007516384976,-1.1512120121413405,0.1461084878839609],[-0.7099608398943236,-0.3875016575901531,-0.1739368582175554,0.8151667466543591,0.22026153118272168,-1.2392472831653483,0.3688371043509601,0.0537488065559124,0.09776390495366183,0.2026976960306752,0.32899628834978795,-0.19979662655455888,-0.1827370890742166,-0.07351725380999834,-0.27187250975053645,-0.12824591125483226,-0.06720977655182836,0.3838425988989523,-0.1292208344713659,0.09713345446993284,-0.07289980543161198,-0.025755093996094578,0.15433030532235734,-0.16662559228082371,0.024721235626651954,1.1764444474318143,-0.2993525193115127,0.5356305184472503,-0.04718112388443793,-0.0707839427106521,0.23692908268713722,0.8693485190460545,1.117164027202518,0.2742861279306049,-0.02876030262056384,-0.043972430656322455,0.12439546719113925,-0.12213716164057359,-0.23791608643044693,-0.2656277152320204],[0.5753159845752824,-0.056873130903038464,1.0032273865842911,0.7462424866221624,0.4622526837049238,-0.3013804042681198,1.1092212356268558,-0.14075083823849513,-0.4730473046173998,-1.2253377598789106,-0.11774411523187836,-1.124068835835919,0.35060600931276065,-0.7877664526453454,0.05660155054971437,0.411910384523877,-0.44011750253399096,0.5253334766681268,0.41676099500749086,-0.8142553046195349,0.09188733702556029,-0.6893074217706807,0.06922591694694079,-0.823173002938404,0.3094631552881917,0.38475929568437917,0.14457271123352006,-0.17408106786107608,0.21407756302996406,0.21343311980915206,-0.04374764932069797,-0.38437141991171825,-0.2617301967136305,-0.0024796272950869166,1.00649521721006,0.05291241182775262,0.14993148604118633,-1.0242063301225648,-0.36868803905714287,-0.3091794004852719],[0.6634267328444017,-0.7582719573158374,0.28976221777749805,0.3106576596116994,-0.19526122817005154,0.5462222914842708,-0.18761666792448917,-0.023973927408632457,-0.179392898661279,0.09934048121945847,-0.23539048059165263,0.06733230007366499,-0.24900901134349515,0.7239705801419788,-0.2787059077138499,-0.14031943576992392,0.47004066698329566,0.11566527946677253,-1.0525322437003788,-0.13781975825186435,-0.08933578256344388,-0.26669691163673087,-0.11582431866398395,0.14011451304738137,0.06578954495743923,0.23254747396946243,0.271996520775226,-0.10345976950085706,-1.0736277333099002,-1.2558535972468858,-0.25897707798448083,0.3117492422774927,0.05639288087473075,0.4515908984818439,-0.093080145485309,-0.8377112767164383,-0.6539678141099676,0.18659053201296158,-0.4206006511501748,-0.16834826536510317],[0.4091776468689655,-0.08455771612497534,-0.8025782365467311,-0.27728115308012685,-0.4003643965007078,-0.08294993315753824,0.3558959783912422,0.09821012961509608,-0.24871886207863325,0.07503593741156232,-0.48951121060230124,-0.26940483024509954,0.010973562210180088,0.5255953492626282,-0.5518232170714568,-0.21488105574219718,1.0029807014199048,-1.04128689227405,0.08145935779355423,0.869802610987685,0.17317097628533235,0.01687006669894298,-0.8807829475659237,-0.7240359789199866,-0.20637550854944464,0.29830718831862274,0.19366290242116585,-0.2278050372990932,-0.5929934188809501,-0.3235196223111724,-0.08748965186579381,-0.08593769095397331,0.6916242391234939,1.4782988450531,-0.4660648366235406,-0.9436866876441301,0.2731169059451991,0.011977343424361762,-0.0157835208349259,0.036536780553917285]]},{"b":[-1.5655056603924218,0.4981213425490407,-0.8100926072954391,2.408963102512614,1.3286294230251796,2.372845840653075,-0.5621133078683355,-0.3783718683028999,0.579214416609075,0.9577381457655447],"w":[[0.06706935870163565,0.19857246384906818,1.0499930908458341,0.2743328013804482,-0.055351772097959696,-0.03374730738274553,-0.6179657450478443,-0.1546814109072635,0.22735976343482459,-1.2729062213300066],[0.13656007546660212,-0.8702725792693964,-0.48154044360834125,1.793884762462947,-0.9806487279537157,0.051765721110570886,1.1142743888558084,0.7850951403368135,-1.3182586970035066,0.20723100253713939],[-0.11889364916706015,0.014495788471709022,-0.1508919990191796,-1.2700757383487706,0.75422152191444,0.13044853324652306,-0.0405138409008213,0.31652664431386257,-0.4518977225360782,0.45780530240198497],[-0.163880344130445,-0.19061888879896505,0.25444767493884557,0.25303330432542126,-0.08612176857459523,-0.1070029778372382,-0.5783721090565209,0.04754177042040536,-0.07972772798366305,-0.005368769831493521],[0.09017005059416924,-0.8766178346940786,0.9384472831740489,-0.13355760876606237,0.07313883986159891,0.059976980998726476,0.15116420150282434,-0.026275314647453547,0.11781733201582668,-0.11296490367253102],[-0.554555655038474,-0.004323847864037515,0.02413263833560741,0.21448828706303283,-0.47964756566783,0.020655148479935655,0.05242825839246512,0.9282414291122449,0.1537912546698203,-0.3353462884166065],[-0.9228663866457446,-0.4474171576790891,-0.8145203980561805,-0.10810980102716868,-0.2702259531991186,0.18898175025583558,-0.726511580384422,-0.10006990594065703,-0.029504462311822344,0.09552374100598815],[-0.09467764184597055,-0.9039682520942111,0.219836293214971,-0.6843656211521756,-0.055667693316767464,-0.2861367870297124,-0.7479146516697124,-0.027235766437622978,0.1622823208345673,0.07861116768792736],[-1.688103321347286,0.07594064227717467,-0.023501602731552405,-0.03269157451821209,-0.6085044161291435,-0.04719966728378021,0.7178540567186998,-0.1249177009418361,0.07470287571825121,-1.1429244511182817],[-0.07945342738041866,-0.06060474147884206,0.17084366718048302,0.8958628061461005,-0.27325609693023567,-0.18346721938328076,-0.06981646930067663,0.05527091087196013,-0.013386857381369414,0.9838179541985729],[0.07299241978907994,0.2144716679180175,0.03131752305404449,0.07568930616125441,-1.0209259518457428,0.0755334877042675,-0.3576963770923717,0.021744358211837445,1.1042978980853984,0.007338627150903033],[-0.9532409953573446,0.8325401579560747,-0.2641228857862219,-0.1164990921217736,0.1214309281392658,-0.671145350562435,0.20666912524660136,0.11921447908939072,1.2838372237298583,0.7056688429356568],[-1.0133544790992,0.1635821319346072,-0.018593767676576282,0.06550772196365917,0.1414882930946108,0.8733232683608246,0.05801359219890552,0.13893950289458992,-0.041578290581981654,0.2086610184022367],[0.344363089336163,0.7974288716469412,-0.9351809788895502,0.7014639815259219,0.11649897751602362,0.5957845427846691,0.3844191169122858,0.19257310923714033,0.036130167595711506,0.430082093365721],[0.12597747260382341,-1.645132042527661,-0.03544604133204943,-0.9712665809433072,0.21746495993280596,0.43083794065987324,-0.2113670038253341,0.28618700990628326,0.8969747171847916,0.20035948635810674],[-0.010946736487645308,0.06232128654167996,-0.5721399830709207,0.061580725049365174,0.3414428818490919,0.050230164948027456,0.8091940145495656,0.12610860274619687,0.1881899869754392,0.0679542924653547],[0.5848330606447533,-0.15438683176205667,-0.10173700289470954,0.0357973475931555,-0.14302535022357973,0.11071013627746906,-0.7981875233045034,-0.698135463107729,-0.4364002547046205,0.0344365173391808],[-0.0012935146110030237,0.6334139717677885,-0.27971256415259504,0.07420629533495585,0.26540972531848905,-1.121880973587125,0.16519020897436232,-0.39436485455759,1.0378078747187627,-0.10136845714650347],[-0.04002159793687102,-1.4312040886538895,0.518662109710711,0.0023652809991286036,-0.10727819039621081,-0.24842262170646168,-0.13203982404856687,-0.17394029434851255,-0.7243511613030009,0.2948943064929459],[0.1529446700670887,-0.11696893286317196,-0.38827705196412876,0.7350985372010143,1.218675155565784,-0.14021250195978407,0.35644082550951073,0.44900727548099556,0.03005998728245612,-0.2619766405180289],[-0.09457805114740782,0.15989182179537978,-0.8927958886354139,-0.10596044846051833,-0.1392647128927705,-1.068526141282237,1.6885713596932233,0.1341858114032596,0.3958554924354317,-0.18710484420580506],[0.046871760481608724,0.045420003802905944,-0.04801822401568453,0.3254638381067291,-0.1734188428429117,0.7967305832461832,-0.011095430083403456,1.0655669030554114,-0.1446606166789197,0.4189602975327752],[-0.09006961317145144,0.06358403655565885,1.183036744533493,-0.014035624302376926,0.15047850166765836,-0.6957286103830944,0.05766432094505305,0.22769934138008155,-0.38020357019704476,0.3166883086545356],[0.4032446373678506,-0.1759623397661474,0.35808598056397817,0.021706805971729245,0.008622250120243147,-0.1531881324826377,-0.45647784091246724,0.21152804470720524,-0.010297442549684937,0.12940025859232038],[0.12106002850137465,-0.25280066588159755,0.5603874548032639,0.004618833718425364,-1.9340589778913362,-0.199660298150606,0.1260531402524842,0.08458360537137892,0.13524302964759116,-0.16262860868079276],[0.12717988428792806,-0.9646517356178914,0.06545954242172788,0.768438503653362,0.007655912651065172,-0.761225330812783,-0.09263639235340486,-0.938734558044958,0.12390197162993426,-0.07225988430351843],[-0.09008711820040567,-0.8245351913666588,0.4519829605349788,-1.0090636696986273,-0.0017762540452033065,-1.0406434643634435,0.08066404351458475,-0.054305591153573696,-0.19571265985742137,-0.5422242066196139],[0.3626366632347804,-0.04561027488211358,0.14559270499396812,-0.5866698627576696,-0.43541322113259395,0.48167530855011187,-0.649169645647882,-0.25062914748856274,0.006879377177399292,-0.05626913112626969],[0.74684942166225,-0.5248288992424117,0.06422057591071986,0.27903249637241095,0.6605288096517845,-0.028866023533227998,-0.42983964693990206,0.1486234086466418,-0.45961909761436015,-0.12231208672023476],[0.057934936235350634,0.6345889950060385,0.10037650044087525,-0.2509556154660889,-0.014621831030757032,-0.5140169267510764,-0.029595464024926865,0.3152191229067689,0.17548772675326577,0.9427299438923589],[0.31930391477119496,0.523305258266731,-0.7720311704906837,0.19207344511034824,-0.0799021435402083,0.05881579458077445,-0.7358236651216853,0.18863428234652033,0.05106811975057984,-0.7057463521945938],[-0.06053124518361029,0.015188159489107574,-0.9561296221017074,-0.4441553842503858,0.0040803743633743275,0.35245694609319417,-0.18976826304782038,0.3223052821704364,-0.31091560738756313,-0.08231258999827548],[0.8418836939824659,0.44899654696528146,-0.22841739105552394,0.07411937926242569,-0.07929875174276133,-0.04644160493013757,0.6729837396926261,1.0580071542040586,0.4898314177022839,-0.4108931984160672],[0.17872414039558032,0.13612842596965471,0.1695396267407263,-0.06883142948360742,-0.0060842068626493495,0.19827090945314704,1.2649195319387179,0.016609613676652746,0.057392748248029445,0.35413123667297447],[0.10182075751687832,0.12060450150534051,-0.061286679858206405,-0.022770055428473143,-0.1743329452747175,0.09775884572536223,-0.5640653272709347,0.05881846856164161,-0.03790816788576391,0.24737990851911051],[-0.11876229292565174,0.2716644368838003,-0.3097696249666388,-1.464941060281026,1.1915731222411012,-0.1696583795707342,0.5570511091592635,-0.12235409902057306,0.2403028046200495,-0.006055506163563519],[0.06930322788100507,-0.03744611897396673,0.4806694709224408,-0.08072089307251694,0.21174493776689482,-0.3087094680373019,0.19659408506150047,-0.7429552022612683,0.42643118558474014,0.013227601850100284],[-0.009619091670682041,0.003405149794074204,-0.21834520675053395,-0.9602998449128599,0.812207042023612,0.05266090660095519,-0.14813804419337245,0.08797653477130292,0.25348586835694553,-0.5165878281480433],[0.0667091215941499,0.4143346318219787,0.9906249692202304,0.2666891324478296,0.158970033312932,0.05076693546656128,0.25979662235164486,-0.9867758035208312,-2.212572507439617E-4,0.12044986343687654],[-0.04265305065386216,0.10639097728974198,-0.07693998997938692,-0.19838335266540832,-0.06804677138569754,0.012079627977938587,0.10626228221042906,-0.4666064343805625,-0.17621916917359373,-0.062315077480529765]]},{"b":[1.3159502633179472,0.24982431152489268],"w":[[0.18049343364771142,-0.08347063643153904],[-1.1932241833718937,-0.016149990118725734],[-3.835046339414208E-4,-0.2535272771332856],[0.8787255743896635,-0.6715904683477362],[0.4197238349289247,-1.3842263450145942],[0.6059707099946791,0.28640932052293283],[-0.6625012178216398,0.5496891856610788],[-0.5705893676078739,-0.14172616634647894],[0.010190697815332328,-0.11695743438956738],[-0.03810798732943623,0.6469672432960656]]}],"dimensions":[9,20,40,10,2]}
