{"activations":["relu","relu","relu","hypertan"],"layers":[{"b":[-1.375078738263666,0.10761916614881162,-2.8570973180578383,0.5869319130761754,0.1252855909638662,-1.5212015108334411,-0.02921970462974066,-0.04749426589183875,0.20439725443851595,-0.5101038313805366,0.39192939501409263,1.6653489312147978,-1.482080583707814,0.8942493059332746,0.9559891647907206,-1.6357577310634255,1.4756395898730468,-0.7807922015250448,0.3395435896534867,-0.495093175318326,1.3005020199258646,1.322133411679873,1.1403041526544313,1.1111411709451458,-2.9926765108663025,-0.7994019412463589,-1.7083022952030191,1.2201567464806635,-0.09843003527067935,-0.23859802418743592,0.8073375069869189,-1.0004052584435872],"w":[[-0.16431448641591326,0.4621626239277732,0.1652081742807676,0.5285580995088112,-0.3078813161086835,-0.18775917960812782,-0.09170225853622763,-1.0167434792639642,-0.31203560521921714,1.7018710928240002,-0.6716572875962536,0.6266851087585878,-0.18666954563469496,-0.11044765596137841,0.6595083072139085,-0.7203360591308705,0.28611697071352393,-0.16405323755729223,-0.2109497434604153,0.5373145477444653,-0.1766599537250112,0.0722534074966128,0.1506515563624574,-0.6597345138789894,-0.5657893937035787,0.21374720614916756,-0.27120719229628076,0.05398689619094039,0.005682149994661546,0.4604029218193453,-0.1625674797156129,0.30562791878119616],[0.6027347066493651,0.32639684154901905,-0.05930206790557613,-0.4045501865963799,0.06935437025675639,0.800157942365612,0.17104100606294925,-0.251467121424559,-0.7818496950485245,0.428244923150777,0.004921596140679552,1.7141408667755436,0.040134727417701105,-1.0339364648897504,-0.48471737258484515,0.01245424886793603,0.002287253676110712,-0.47639890828212805,0.28418983712747325,0.2369074405841485,0.37677010156726676,0.606998111626701,-0.5722885135383996,0.9465947148602254,-0.7059589994545391,-0.1188762965865778,-0.6739867316938825,-0.3495010707662658,-0.26225927547104083,0.3387343554084849,-0.31747564795582284,-0.571740728560818],[0.042330257753103735,-0.7156244541839684,0.5901943599999737,1.0555522609723509,-0.11282012397162303,1.2013327965119163,-0.13725169964781736,-0.2616007183288694,-0.4184008272385493,-0.34296200480721506,0.8484476834115695,0.8990868745184198,-0.16139597415661128,-0.03759054525462677,-0.05885655365803921,-0.11208865361748527,-0.4679127296364112,-0.6419203587001272,-0.32479052295242433,0.04545338312013212,-0.5707327725112721,-0.20876585653501756,-0.9919653068432166,-0.31450841800946616,0.8689894902933327,-0.11555833662831434,-0.037362845530010416,0.2647439528346338,-0.10821794954310479,0.3288945249917854,0.5004261564180026,-0.26164747807478994],[0.028668048039395117,-0.6354773866406698,-0.30177154691238095,-0.14998122706609554,-0.6952576171243063,0.5552228904269574,0.09652505398313556,0.24992431720933894,-0.19426955494202938,0.2954138974098358,1.1686940403730386,0.287536368217733,0.12179228042143181,0.19407376651674657,-0.047714321177111996,-0.8088396802847895,0.5187234668951917,-0.0820887294674491,-0.02977864505985016,-0.19020068331093004,-0.3127613768146261,-0.04135864371223125,-0.32907921378177885,-0.08679247300975881,0.4025333916371357,0.9238839272027225,0.028623268091920163,0.11651325268016462,-0.395181136609125,-0.07020816106034883,0.0012839339306617386,0.12156007473806421],[-0.6418091186792811,0.1745036787962098,-0.16663045250018133,0.015532438909482062,0.9172161070799325,-0.3415524436190013,-0.6028995578884287,0.3191559348410985,0.3026430973029912,-1.0802748358155796,-0.5125758778375751,0.044797911025831846,-0.26085517839023664,0.8058818898726224,0.6398566078018382,0.21709637304541832,-0.19108462335135137,-0.360424583935171,-0.03592533526375359,0.05468070943373306,-0.19543692853008057,-1.1338996846628202,0.10490333866412113,0.013811915866776617,-0.052753097802469125,-0.556750593240089,1.3111065736930705,-0.47960451086261213,0.12181036743963342,0.03787090902209091,-0.16682036369117947,0.6840295950594193],[0.09095747436980108,-0.5265303870112463,0.6303738168603997,-0.39929819901488384,0.30578586907664507,0.09807037257357842,0.05013789368688405,0.5827126498536519,0.5633491296301396,0.6632830317808004,0.44201949813788677,0.04310790175773371,-1.1379546073756985,0.5570504222465988,-0.15289161801611073,0.059166527011571164,-0.12700778105143207,0.2297910146943999,-0.4067250843410971,0.5464437647049921,-0.4494425526281719,-0.03206204071186773,0.39463951764979954,0.5950307487895026,0.043792650295463226,-0.06851898024765019,-0.3707274215435784,0.41951014620432603,0.06171988438431698,-0.266153809858391,-0.3304541562241755,-0.32133269024506883],[0.31638882445330085,-0.21911831086625477,-0.46197625674936793,0.03228341459287051,-1.3179783869829171,0.051697677381740234,0.8036099949098682,-0.27655100774113706,0.6969115295256161,0.11196707770585507,-0.05562127069240326,0.6797701613102339,0.28331486879314216,-0.25312751519625376,-0.08894338658446699,-0.642510475082643,-0.88648724457671,0.1560340493116464,-0.5903063119210684,-0.3608122663764808,0.3834812676621808,0.14082573487202787,0.3240008853006782,0.8492596404927093,-0.2448204433979735,-0.3800420771467592,-0.23749492491644356,-0.7566490110055553,-0.38095992798146205,0.22902932060216463,0.0185070097890619,-0.5332404309724749],[0.8113277484673129,-0.24222478547348097,0.31084033973745473,0.04961858824149111,0.09963605499536712,-0.9846573131207516,0.41697056045671504,0.19914857331107172,-0.15142264976348693,0.4482347768777015,0.632731034210644,-0.119987549187511,-0.11204715091363528,-0.5193800330565084,0.528653913982224,0.15690659186205003,-0.07361297562123581,-0.9046869469056238,-0.139776614066877,-0.6524761013794875,-0.2531246883384169,3.1775730371337736E-4,0.28366291862560267,0.2665933913761023,-0.39139377112551266,-0.1660982684508878,-0.3152878296968904,-0.3772948333581816,0.41953322551063965,0.1068235383786897,0.026678410804937082,-0.08439911809038338],[0.773610580271165,0.14964804313921495,-0.12351958625139182,-0.0036505857634738844,-1.0880090392126114,0.039680927849960426,0.43485812420004566,-0.21838290815397932,1.0407560128659257,0.023815485356253663,0.05700669016337834,0.061182145796697285,-0.18696446434331151,0.11729705264920945,0.047461672582992165,-0.16329764739247976,0.28364234645687836,-0.4455322221076419,-0.14184227335068234,1.1606394021273614,-0.37046535181526924,0.4976029079751987,-0.1071910405746266,-0.43431637012352287,-0.6350654381603316,0.23847504539149594,-1.5979766537663638,1.1353872920941908,1.0030905887042616,0.4217757443494571,-0.016056428613131425,-0.24363668653446982]]},{"b":[1.71993110591087,-0.3933685425540591,0.8529405642967895,-1.3714171419533572,0.9685515740249699,-0.08613618329538261,0.5342210080593637,0.004724997067343549,0.6910724843074797,0.9556846745274407,0.455891309015955,0.1178355212380802,-0.3783407715955117,-0.27721499078911654,-1.3251757935866515,1.8305834220501416,-0.5515500582307836,0.16837655015233455,-0.4043072834827198,-1.153870639926398,-1.6324249146690097,0.10505368225365568,-0.09511916548984817,-0.2072430838745471,0.6616292436840742,-0.5136216544127031,-0.515218607678538,-1.2328045676603019,0.8794569108515765,1.1537944193887022,0.3983943997286751,0.3484853593475065,0.19389044762368152,0.15044509140196083,0.45401818331198185,0.1565938455280729,0.9875118994746591,1.7388331484184492,0.994802742510758,-0.3384396966382937,0.8624244652416161,-0.6558474154342225,-1.0564362524288258,1.5341542703190072,0.7151472359994451,-0.5140906138478553,-0.6491053104948493,0.8653051061667639],"w":[[0.3357536043327573,0.6111558401467928,-0.06260277735537473,-0.23284398526132696,0.3699362320325033,0.17887206366874725,-0.2870770492776622,0.584788571375578,0.02154772360795691,-0.20219235586739606,0.20020057633669314,0.14818352716422006,-0.08539409661861913,-1.0908414426418984,-0.4394393801885865,-0.025279988235007624,0.13356644870762482,0.029772285445648514,0.09036837360848164,0.04742925514909642,0.157589251769781,0.0808044447124354,0.6393599055946956,0.11688678438821984,0.1873715160824179,-0.10007455728810138,0.41740610815720397,0.2011617234110488,-0.03888471172690218,0.06552339840764608,-0.13283700022174919,0.16561285126184017,-0.13013407832423626,-0.25041377389296854,0.5356447360783075,-0.25964928345112925,-0.11952563877507558,0.3201994472337619,-0.06250743825078896,1.6065802591507128,-0.0750348080836113,0.04175285594234009,0.2552144102914597,-0.2296687521223072,-0.03516599389690455,0.4228297765267322,-0.05870663917429909,0.10311278288743597],[-0.09168331764594345,-0.263766723408274,0.14368575299700131,-0.49922957293787723,0.20503650992526812,0.011416837723725726,-0.33397424691436567,-0.35225678639305136,0.22272072527921893,0.5377924777916407,-0.23236782146179163,-0.11654411858160653,-0.48320023596072065,0.16502753966655756,1.013550690473537,0.03457618766883944,-0.4544876995997327,0.5912346914423365,0.5988603795555177,-0.08091173382777075,0.6395510244115117,-0.13015837873437158,-0.32787193836489464,-0.9002837970998318,0.0904542420332388,0.29593770579736345,-0.38505968984235844,-0.09928354982780176,0.0534508607555547,0.12640751076276946,-0.278632020905611,-0.11084741409118441,0.7978219928602714,0.03484935208521646,-0.19663566002066257,-0.009034626117494558,-0.4370723877064968,-0.00960573552062425,0.8062615865410272,0.09060248382892226,-0.40590206248074057,-0.294916840610535,-0.7529804158513492,-0.14744867431300945,0.10623179442267597,-0.3994296339423514,0.0738598809708605,0.609482774660497],[0.9592028529410761,0.033658068606101835,-0.09670948958894574,0.39909644684351175,0.014547638193219945,-0.14014839032552778,-0.144341171386704,1.0030142883502244,-0.1263566376937053,0.3325824692893375,0.0505387771323778,-0.2407099638569261,-0.08945262607133361,-0.09820202620218649,0.18972416207849999,0.2578252807170145,-0.10585766292594165,0.19375465428258953,-0.02222123734295833,-0.06699991841857286,-0.24157460008808343,0.19287176468457412,0.3305304554426086,0.009450333006577391,0.22803959113097014,0.06957048743796077,-0.011003072298441219,0.393495706577883,-0.7697127012926653,0.03965330683244193,-0.18263524619976756,-0.7157768561138934,-0.05650362154710448,-0.013131044286330096,-0.12090813393468379,-0.17808063388626072,0.4175609100384866,-0.04043895412605658,0.31664356433897584,-0.08118530815247196,-0.05772013633485408,-0.5478330312331825,0.5157647741335886,0.11680341754610282,0.39682202395585303,-0.08031553611659362,0.06365756869941337,-0.12865567147434376],[0.5262272433413965,0.12088419480386473,0.07546863554080946,-0.05705547983776831,0.16819147928744582,-1.0848832913528748,1.0841800493859244,0.17775861722515787,0.31171563974376104,-0.4043689831635694,-0.3137598783528488,-0.8283289456804739,0.32982136696037934,0.6224578244399551,-0.5750749435827779,0.028203555329313068,-0.04861011734378723,0.14540495882866716,-0.41020646559584134,0.15056924544497757,1.6173246098545477,0.536610228425394,0.019227223294878592,0.20748233629586538,0.13485553882375317,0.02198687296259009,-1.1696255484601359,0.6207969947387411,-0.026285014123546967,0.11096048198507012,0.18179613174366185,0.050905323660081506,0.15075022328153653,-0.04708442941718243,0.3520825834633891,-0.3171904285824053,1.3348619308974654,0.06527000289822024,-0.5758791649529647,-0.11901141290748234,0.1538601634588947,0.22479477635971024,0.03572736048806594,-0.1517958797651588,0.0551819375614881,0.31250569279272966,0.42784279629058497,-0.8142275588420965],[0.14937403678193634,0.030403255195818556,-0.32389881778650076,-0.13869377688893278,0.05728098293170995,0.48334113487022723,0.1419151769822126,0.13760267106505228,0.8167618181021554,0.30816547147419726,-0.24154922238638726,0.07825074599682404,0.026666437157081405,0.6753446578434233,-0.029077757472051022,0.07945988783435154,-0.2852010363825117,-0.06945232752659834,-0.024070837883657777,0.04477244718302025,-0.8081227548259559,0.04496021774976271,0.1961080060736175,-0.09909892907117612,1.0280828294110824,0.14754931502979018,0.15449702074052468,0.27208370952092065,-0.3078386730111851,-0.04560830748101388,-0.19412771383076594,0.3048309780936818,-0.01213354346984884,0.1914635030624456,0.022334175960728606,-0.28024789679780276,0.010464367230009207,-0.10617121160916945,1.1903505369588845,0.16277625198353787,0.949865047474298,0.8050157409714805,0.0593057899615237,-0.0898099640863366,-0.16820762703304368,-0.14468634191976004,-0.07746627362680587,-0.7804466619612276],[0.1300765859157486,0.10330337558494548,-0.3271036852524501,0.20782526288348424,-0.1809549812673511,-0.044009743632307585,0.6019616631149092,-0.22603987467984485,-0.4308232921080081,0.04850460913493999,0.42786299083300156,-0.058695471377501654,0.7667462179538165,-0.6976830640367753,0.14485835037440745,-0.1372180722626864,0.08161190423204571,-0.6820523913189735,0.3950199644451825,-0.083999570407983,-0.24455025347635784,-0.24505042355166243,-0.058516457408420805,-0.08218081652546919,-0.06052149071104488,1.359339606699839,-0.05665500342936666,-0.041659463634190236,0.7660355705814204,-0.1520964267090546,0.18870991574058305,-0.5288026018801225,-0.05086430550195533,-0.8333783331387495,0.055587172250550126,-0.09904996855709715,0.08549615849158937,0.693592759282803,-0.10708805681842781,0.08732561916359853,0.17769276584783003,0.3493759760352037,0.22158766088309015,0.03173613021399623,0.13417428228168468,-0.08380533550136005,0.33398182969476037,-0.023084943911560497],[0.9150618544613068,0.9138226458731545,0.06604562368308048,-0.10728603709174728,-0.05263889894242526,-0.7904115295493029,-0.6121457700233011,-0.3480622187300007,0.8573830554843064,0.14673094579952772,-0.013731098012757943,0.7430627411744755,-0.136825088420551,-0.09193380687063799,-0.04215599225682241,0.09000115559448127,-0.00642772721460844,-0.3879835807357115,0.11635968743006497,-0.11292377602063937,-1.0670857687504036,0.48735768347901165,0.10825887838382944,0.06919092561281422,-0.030989939835544673,-0.5359597444659007,-0.05583732471679506,0.06686903462184841,0.1324045575742679,0.16955488252793038,0.1354691117382174,0.6327088602207719,0.05635319057619257,-0.037390565416762486,-0.2371439626508459,0.009266692975723268,0.08704077401941482,-0.25161078499295314,-0.12765383446292392,-0.11307531261777042,-0.5086952229870412,1.0084226990381382,-0.23467135849874057,-0.2981685643391254,-0.2972471888993794,-0.9174231965935754,0.013118777786347506,0.9888247604923357],[0.1317387604399745,0.37389050398991824,0.19024630178003793,-0.2613489315461792,-0.46855117008726577,-0.260298755565067,-0.2732866791499783,-0.18370441645264127,-0.14862500541000184,0.110232173684394,-0.1698215450977198,-0.911635687523619,0.247416709259807,-0.014715466531526058,0.04596738893499304,-0.17475058363180607,0.09843666211476718,-0.23313549973067269,-0.03660284746442807,-0.3885742105139878,-0.10927109439307897,-0.8876224581443757,0.4979418048470309,-0.10126483457691188,0.1169479969504517,-4.062836869940306E-4,0.13666486608652426,-0.2599730469932464,-0.2501990462459708,-0.33724681999289596,0.040945094998881215,-0.6503958745050533,-0.2502745436204282,0.27038839710837953,0.22299387501340237,0.16882643420552948,-0.30389711280539206,0.16880294840925006,-0.229606037074567,0.8201622865034748,0.09759836433889185,0.21769761172436414,0.1556101500200913,0.21437054383272394,0.21982815245880338,-0.050565038167126375,-0.08729523966662024,0.1019356764515089],[-0.16809586312320773,-0.5296469603634668,-0.1673679989686957,0.14171476358103902,0.043783892760405445,-0.259286407612428,-0.3017801859807996,0.008564191667536029,0.5756715238659249,0.5699226411823769,0.1705934315021785,0.34650032202198344,-0.06427897306987412,-1.2019502259781913,-0.6288237749780665,0.13446711269852277,-0.08797751720761676,0.30938071997414923,-0.059057083604096394,-0.1554993114466614,0.03285815948617018,0.08780985727194049,-0.23615271920671962,0.13187819005266893,0.17275491478407368,-0.9713062304489986,0.1425604804036131,-0.31480141100675074,0.08934880181379261,-0.7201964849757239,0.06343790163174515,-0.03468511395194612,0.21707222577495622,0.08328745737257728,-0.04985286594983013,-0.06376867395419246,0.044568126356737535,-0.16468128499001938,-0.09845208521755591,-0.1456771076715809,-0.8447082600727878,-0.24327326213938072,0.18568575557407285,-0.14456090957521625,0.3012978319774223,-0.16949279657387117,-0.21565972659982813,-0.9714303584708588],[0.23898544059948987,-0.6934113754655047,0.4868094213797607,0.033755904767326636,0.35841198996960844,-0.7675898056925936,-0.4339402589638187,1.5510725983603093,0.04345931359616759,0.22309193249769493,-0.01995932319759609,0.029079044587729926,0.23403796062021556,-0.3539718964877993,-0.21178648161065883,-0.015044295421208852,0.6822123172945627,-0.16609550836875503,0.8570794636965813,-0.36160611879654714,-0.17386336927454113,-0.22259481610990842,0.013449889265651094,0.060302565648053204,-0.19265493534229405,0.1505009123784941,-0.4985503150602748,-0.29253343405224014,0.263588036464303,-0.01893311766415545,0.19495445184163462,-0.19358118533122032,-0.06147613358199558,-0.4195470593871811,0.002418792953418473,0.11360604677871294,0.9512368779194691,0.18589329656842302,-0.21156029730083736,-1.2209211861420786,-0.029519191810269393,0.12552080850343744,0.6840271499169865,-0.06019643477304353,-0.07073406540362054,0.38859496868061605,0.02941421682008345,-0.00891382775040104],[-0.2591607161800608,0.3572390904025684,-0.19685137821871773,1.2918787178748299,0.16179418310908467,0.044558093957932324,0.2868597519733823,1.461999902493452,0.3954583799764403,0.148784997985266,-0.004633817960845224,0.22717900008203543,0.10767918757079445,-0.12470972943528498,-0.3467753216700213,-0.751597185729161,-1.424734128890937,-0.8138944587874513,-0.7390084884085371,-0.214488411553186,-0.08409294405180877,0.4812909276277272,0.19039257927649356,-0.1207127331531218,-0.008354232632736762,-0.03576851737199091,-0.021668319953354883,1.3709715982440969,0.22070364133909243,0.9856538014308913,-0.0496573036633913,0.30906382277378663,0.07643813257903949,0.13723967589986405,0.07600070809103066,-0.10512084088156654,-0.35777571214679027,-0.0542028104645393,-0.2438832442676929,-0.04350689262912487,-0.8340676011390554,0.012277064427005184,-0.40885210247423076,0.05618994496706181,0.6655275818059772,0.07803316819233841,0.026108852999637378,-0.03915451973836897],[0.1149377034241985,-0.15587403143796558,0.26059329333535725,0.13096763240767456,0.2913984870839391,0.6599532535287734,-0.5603117109849263,-0.2705178212926246,0.3582733074359858,-0.13050373043997,0.03501967907791637,0.10381150712921998,0.4530276572960795,0.1508710190843948,0.057068984547481764,-0.10916077302617033,0.43384737435052556,0.1024213311629919,-0.0730087911782763,0.9944059248592113,0.1918975680187492,0.1333348133233324,-0.18377866335632254,0.008691125973820461,-0.13781280543576124,0.6976823194272317,0.17298680564762628,0.11956334482867308,0.1495696789849537,-0.2352968013453261,0.11232889393263025,0.05982804647949843,-0.6715883058823992,-0.04165234253349871,0.4509414259986346,0.20709449346593506,-0.1414485217998089,-0.0024537123258908475,-0.02394250161982806,0.23025375125298897,-0.6499803817259171,0.1523997571934685,0.02887213653747866,-0.16056129532992305,0.002634730324994901,0.06188929518525894,0.23656838536612385,0.09197826888596167],[-0.14708348379004973,0.11441340602077878,-0.010817751117651942,0.2415344914020049,0.16463517526618351,0.9713612226160329,-0.5926557602544531,-0.002618766210052014,0.09584833479205396,0.09162725884347572,0.3223083976114466,-0.08053560400096804,0.11973854255728246,0.51416774733131,0.2513531657513472,0.3073228675762774,-0.5541803738353817,-0.6301864555770699,-0.29079405612056036,-0.35189543337528595,0.3572104291805668,2.932099369794758E-4,0.26365326773416203,-0.14629760102756334,0.3121517469279862,0.04875788911995989,-0.0914543135672292,0.3024173361267985,-0.16912113083818847,0.08550622511955966,0.09610404370863397,-0.05934362448292546,-0.124926688844313,-0.046010185427213315,-0.36626633561566563,0.15930714218672126,-0.2100907927362101,-0.0025468237938817886,-0.025371553845955297,0.29900651800421085,-0.010830864575602991,-0.210542683657681,-1.1105166744805275,0.8375352279913046,-0.4561947133740502,-3.223749271493083E-4,-0.018364769833130592,-0.11365324384839603],[0.08002578395162499,0.22708733145218085,-0.23085289867868702,-0.06176648092100924,0.019459770886339343,0.04303988133775232,0.04885893689534065,0.02195182447742969,0.05731014417997496,-0.030905110394324305,0.6369280097073295,0.05601353107112968,0.07651421442430574,0.44633813016970514,-0.04136936416270294,-0.5406055003702656,0.05471442145117911,-0.22284465405406623,0.08292383306462542,-0.014533339715795353,0.30973907996059785,-0.36224403139463046,0.6393369882520554,-0.0030445289734545313,0.39179533500502006,-2.39856134832211,-0.37288608099482623,0.10624682554194997,-0.6050580350608699,-0.06184400078218667,-0.5943055581444008,-0.20688596008679716,0.17427496240217108,0.305202406360763,-0.7569282052450452,1.0491599070766935,-0.08901943126449373,0.021254529750311377,0.9396960119353596,0.036065674261331435,0.04961753819157726,0.02493732883523284,0.5035111017031266,0.061119687252472715,-1.3156820247722847,0.23194892437560605,0.13754701182387685,0.9814078636743135],[-0.6891733658892626,-1.388153149606215,-0.09115544915370298,0.027153883012720374,-0.10026772274342514,-0.4939616569035669,0.1291840214798354,-0.19131669022099468,-0.7057226346210177,1.0791479944334315,-0.6073437785522307,0.845354624614476,-0.22001322061358447,0.42234088553539856,-0.2592650681786029,0.8606677623212349,0.15480984136705714,-1.3910534223121669,0.09239721685784459,-0.20204220334235873,0.2861770297013671,-0.39619257222262766,-0.19514587525249336,0.1646546509324656,-0.3672258022627006,0.3399460612932065,9.057349330535754E-4,0.23297902974240145,-0.11722547314784623,0.943629681241034,-0.44357597320049497,-0.06521972544361965,0.08710566517600817,-0.20494575256086606,-0.2460415889002757,-0.33193303567377597,-1.0915077920781415,0.03983442832119802,0.06650801710417809,-0.8561594725773195,0.2403148163825114,-0.006627811383438383,0.22851209261869787,-0.039216137958247396,-0.1296331212487333,-0.07050125829466014,0.03425399602697202,-0.16390226455619653],[0.7476975617729714,0.12175101357603094,1.011379804917206,0.04799544985974235,-0.16344934236364234,0.1975159139615578,0.08515756440081716,-0.12504954344528804,1.101648265402126,0.2210179903965138,-0.11783479481840203,-0.5296990132132774,0.09149586031427573,1.1428587261574497,0.15751872219469096,0.3286232401541656,-0.17438158546443316,0.2700078822495093,0.09792857524814674,-0.1698865988074303,-0.13251444632403567,0.05794147385656097,-0.27313753226396575,0.6576992092304664,0.21104955152808164,0.20555346296652321,0.07810802803422515,0.05443313943469968,0.11340043371935304,-0.6850179229040411,0.1499673757543071,-0.3421361227889639,-0.2141341470768337,-0.1434582727768729,-0.002396810814152983,0.11335917285543907,0.11513330010331418,-1.0214813235892013,0.03451115659626161,0.2556801493139889,0.08862246048542044,0.18244877082714928,-0.2412427461792832,-0.866438937756407,-0.07973167589214451,0.3372562014668029,-0.1732189735524166,-0.4469809498166577],[-0.21094348511523284,0.15864741708360422,-0.12158577165681066,0.2132422409059004,0.722385825209179,0.12179438788066083,0.3117060754834006,-0.021207424493128558,0.43126773832930504,-0.014734359781729201,0.26411824571404613,0.13200389047522343,-0.17463809947859857,0.12585820506026374,-0.00375484831046545,0.2766755719412809,-0.2606956018237347,-0.06353179695651953,-0.04922313434820882,-0.05969155219163136,0.9859862437060327,0.017603935362181918,0.5203161133480793,1.8096979895203744,-0.44708491685971674,0.5413043053029232,-0.4741791254796504,0.4770085302069366,-0.19990201550899614,-0.18091800886567172,0.007357498908336107,-0.5191069184990408,1.0727275208962146,-0.3866244224626868,-0.0038654228116961013,-0.18563140670071865,-0.10370206901023546,-0.009778667079348135,-0.5571540741816864,-0.04458976672500908,-0.3347771831268249,0.32739798817916793,-0.27993490446378233,-0.016357112324943912,0.09340727343411215,0.26977617271748155,0.8230964328717101,0.047891313660614845],[-0.06561552078980026,0.11736392618061,-0.040801019223191355,-0.12310889127527117,-0.028271543079274934,0.23726400985678822,0.6865419354861254,0.09252092332521224,-0.07487682194380672,-0.29651469976805483,-0.03713347886862594,0.07130761618260394,-0.6248554714087102,-0.25673572823139135,-0.19000704554217962,-0.18251693079854575,0.3951741979378458,-0.006673260850169189,-0.07338533879883179,0.07378693782329933,1.0340634233041408,0.07011879348766087,-1.1237644193052871,-1.0713035934061297,-0.6865083586787686,-0.19501710830480948,-0.1441992271890502,0.7482480853669977,0.5199636167454572,0.24728503590200102,0.5491967020626425,0.6785469194908049,-0.0195456049691797,-0.06902112403418072,-0.31986099660478573,-0.11881831829352811,-0.3570112636865525,0.2333492484536728,-0.4251440096568928,-0.5612811832362473,0.682133728664323,-0.2604833667148274,0.12438452357639836,-0.13136689164063586,-0.09512315662103482,0.24576483242210742,-0.31037611839391616,0.3354370683296062],[-0.8759223607753843,-0.18053528741522556,-0.11715483371792626,0.2885294810082605,-0.020196248019240078,0.10083060797650338,-0.15301163977874568,-0.12964858349693356,0.9184491012257285,-0.024062103057487794,0.1635413257205545,-0.11516168266341686,0.05465497503440812,0.07298719479673146,-0.2926386777062127,0.15018493366797186,0.08879975964351912,0.220397925413283,0.10064754317435376,-0.019823963345068595,-0.07027381399955893,-0.1362630086239974,0.73198786972509,0.3619585366742696,0.17167570968228543,-0.04513426071137713,1.182604709314239,0.3220462212768183,-0.10735705674743755,-0.06819422192190501,0.6331952398079077,0.041466425371482735,1.2567882312400835,-0.12179204298685062,-0.20634085837788338,-0.422581390348086,0.40665935631251937,0.798020038176498,0.14378351029307118,0.1920035701405345,0.14281790822181034,1.0247892037361128,9.132083358696598E-4,0.1269389743511173,0.051573388552970584,0.3094339036833755,0.6161088322992794,-0.22556239366597117],[0.04180781802577746,-0.048024620024972375,0.13579812516047868,-0.028760006715702842,0.10697416556215104,-0.012476775840207191,0.17675765535815774,0.020597271042534754,0.18238584325064783,0.013422476942369794,0.0174193548565941,0.19327810988801056,0.47878342443662203,-2.548811215779385E-4,0.32342615861078416,-0.49009353770520836,0.8365051860271032,-0.32130553378010124,-0.45966885009029035,-0.343590330640101,0.06312067823475168,1.028181856785292,-0.017644175202714753,0.244092733679962,-0.3850397566637937,-0.8772968713360288,-0.19039575472851425,-0.6606899854423359,-0.41440574402083913,-0.45805581050822086,-0.053808795533853516,0.3209764587188131,-0.42690008149445574,-0.06605578724226235,0.17018805545596638,-0.04137164329094658,0.6014513850768722,-0.008038648885980753,0.09201449323784282,-0.003909618829243261,0.10583054443671483,-0.1206200794592187,0.07550647023661088,-0.006016651529340161,0.05483424439898345,-0.3658940134988396,0.30288871263295936,0.2672164630418387],[-0.15260142376220745,-0.0985259009151207,0.19699513141638375,-0.06616154517742051,-0.584606858196292,-0.03370451524665681,0.14090691113482734,-0.21599271596035166,0.7754075592794407,0.15820758564755044,-0.1253984937698551,-0.0640199874830342,-0.08840343570352904,0.18375361275003893,-0.11983240637094847,0.3001789548358873,0.058861897604371494,-0.19725770071518042,0.37032461062152316,-0.025571870293030527,-0.2110925065881799,0.8438328640397241,0.1797149192300891,-0.12268803375977129,0.04871206577555685,-0.3794915895199778,0.5240604362445096,0.3821252196887527,-0.23584809262735498,1.0604378203561085,0.826578356605433,-0.7871591096751078,-0.07933516383220067,0.38869274699099593,-0.8422100274017102,0.5385267741799811,0.015307322288812012,0.17730285063501186,0.0736991744774796,0.04696680608854006,-0.9087849382316117,-0.09522236850688368,-0.17753230396508332,0.11582818282844042,-0.1219212176004288,0.2827792932035464,-0.1997583290690017,0.36063596606457127],[0.13031135609589128,0.0893123972646963,0.028702171939394498,0.0449687914459049,-0.1968826844507655,-0.16643476606651866,-0.005662357366204784,-0.19883964751194005,0.15456394905470772,0.01099489182751128,-0.13252229390528808,-0.126257946671689,-0.05748765760144947,-0.14311579165036445,0.4340368205419434,-0.4527658985845547,-1.1458198958326116,-0.14284147306541625,0.45155028549887577,-0.2378300795360909,0.10770177769820002,0.15574320914005105,0.004652441690788705,-0.6991002153564541,-0.6513639887502877,0.9021559448923159,0.17635118536060035,0.13444957692646295,-0.22401386122469744,0.425902847938654,-0.027540130998998793,-0.15225999329354634,0.3393585741615326,-0.5703364928024329,0.4719863779302406,1.0339089420912309,0.8568413307438901,-0.25161171469130084,0.18244293399004544,-0.0435287181248227,-0.02018840283163805,0.07155103977963222,0.15770944774500345,0.8649653489667785,-0.18714667103227464,-0.13498194658236548,-0.1794885259195639,-0.4947248267105429],[-0.24643748362089962,0.049795206134952114,0.6798441244264353,-0.27273944729843036,-0.41544976524359556,0.40875981889690605,-0.8878911380408656,-0.22819627056689495,-0.17557073782565025,0.23484229956233849,-0.35956790055099175,0.14433818742629678,-0.29497933966890993,0.05582251344975963,0.1288697146869573,0.2690655323399247,0.9538546661934377,0.4141036660405398,-0.06878442198621573,-0.2958347160494877,-0.10239824148191225,-0.09610394425886838,-0.08870648611496845,0.34559235638779645,-0.061877756644022536,0.1182111850558661,1.8193515486434206,0.09922584587564365,0.1790546957238847,-0.15535777201358092,0.7832583181064154,-0.04391140420663374,0.018227655616910754,1.0162205877854973,-0.2732473854775375,0.44294205798270203,-0.6274303482381155,0.024776871815915955,0.21859437952731933,0.004397022368193488,-0.08559352689007697,0.46358841333051115,-0.08236954588765402,0.020155492968508763,-0.265173257251748,-0.40532694853620094,-0.4411797283061676,-0.002622497917760669],[0.2801077034767874,0.07256070142404235,-0.2979715052683913,0.37529472198466574,-0.03032484738025102,-0.5742562564067176,0.8767326581210142,0.9911357658268614,-0.02337963357226282,-0.21568614434659641,0.5497452022484244,-0.14392305689148546,0.2580117630051434,-0.2351984980597726,0.11630498641379701,0.037817051647279415,0.28453402275274337,-0.0474470447407599,0.18447773667353035,0.27268273205807314,-0.10292689328868262,0.33757655965350997,-0.02863488842035542,-0.1912650876841808,0.02084443738179373,0.30100845864973874,0.08899718899164945,0.038235768835559215,-0.15714819754328505,-0.002201165570456556,0.8628102588462685,-0.8633951058743291,-1.3036460352335175,-0.4955019938718628,-0.053680354701482774,0.7777679550062548,-0.00524201050995008,-2.1389012836405703,0.09941626695173413,-0.16675202448985949,0.20090486952992156,-0.18382735780308085,1.1634573573232605,-0.05411638024820144,0.6057173507828283,-0.6387079053612621,-0.1145851217919255,0.20367179684095776],[0.33575194739346664,0.07727219335417732,0.14495206791772658,0.1923570745013746,0.23936767146483226,-0.46434938177764074,0.2476206353987232,0.49695678622593265,-0.10526063020783462,-0.039832855439981905,0.10051331972613936,0.0822817306391472,-0.13138546127824016,0.10493343726266988,-0.3969016885965796,-0.5824843678848451,0.0696661943335666,-0.05634589374258031,-0.21657758656555498,0.07766394475338309,0.3011955918510553,-0.11491663397451334,-0.1012499724836721,0.8732605882686264,0.04664616797579644,0.15454763847657926,0.06729686841951324,-0.42975850020329415,0.713870511012495,-0.2873114253916879,-0.13331152200872834,0.15195946883630618,0.4243094782661006,-0.16383097711502115,-0.2178564513931541,0.04043537173602656,-0.5915624503684981,-0.1177710253650337,-0.5930945487969626,-0.05973826147573734,0.01501254974541945,0.6668189625489165,0.13870257211143316,-0.5683092806135719,0.08774646493951735,-0.004918316170039678,-0.24008595908610175,-0.08684486152230421],[0.06357443497923528,0.19317666480411305,-0.018059814803096808,-0.24332890564546203,-0.1718264949265799,0.5034983552567084,-0.32679661209299843,-0.05671715029618939,0.3142967696460429,0.10300029559477111,-0.05606420620728196,0.0012714494706028232,0.016078187441542616,-0.1476199461174984,1.457135560738293,-0.6326395618766366,-0.1043871791519374,0.014780986486972236,-0.17336755852598532,0.007960795405778626,0.06955101486417083,-0.10847648475703323,-0.15687787996314007,-0.10095294928406458,0.26764742610862946,0.09229036215662326,-0.26203327076890054,-0.022348295165799392,0.040456236921020405,-0.17486887912009083,-0.27642708671463323,-0.10581100773483723,0.09645426739070087,0.06732357982639546,-0.042372319164347985,0.11972304698059048,-0.03521558174674868,0.16955519160396554,-0.1166812770376101,0.02962231914059383,-0.10077803810482595,0.08592930006099478,-0.5192548205373884,0.11362240972302856,0.03115669232382104,0.024538615765798136,0.23144175188050492,-0.003683674394682356],[-0.05625310757400281,0.018152692135278783,0.29412144177682276,0.3659100391350676,-0.9571575761673037,0.14620417375933245,0.0850428443359218,0.25564490397093104,0.236423018637827,0.49573365910581557,0.21831983750270617,0.8955915136584155,0.1808387483503903,-0.0862960676369032,-0.042142003790581854,0.20982901860131825,0.5687238888637915,0.11046099914245516,-0.38198411534228965,0.1616390110420324,-1.0522653785261848,-0.4397480493047946,0.06788004632210075,0.030893720619198158,0.061394332343695346,0.8565894878523612,0.05483194699370332,2.1963675005746968,0.06678730332256129,0.2618951451709534,0.18120677664934964,-0.2324223427485329,1.9609499251998366,0.08029457893199475,0.6267946240115776,0.13820807129619925,-0.15972494675221885,0.021361838404218736,-0.11266238678142444,0.6791605022999865,0.03700837337886827,-0.10941353384143948,0.3268754904746918,-0.23951889754166766,-0.13928555294542164,0.18818193577922743,-0.049573632179752296,0.132062307687858],[-0.06259839939856308,-0.9656638347271617,0.4088543972092853,0.10319053974289781,0.8783946431890448,-0.05263026831370003,-0.44932121681181825,0.007506956594434311,-1.0068232632958307,-0.22477684696243627,-0.05393376814628295,-0.24502145150385002,0.21102817914585573,-0.06496145709013823,-0.11693189399945067,-0.44292776344191787,0.029326614310216437,0.09098147264244388,-0.05416343589106529,-0.511156549043006,-0.13662520762638272,0.1779711088628584,0.311964580934869,0.06258448233839067,0.7008625255953025,0.014824817389217879,0.04116199741953244,-0.07104297689937028,-0.10312326660575027,-0.10856831237023366,0.09927022112947123,-0.18353545214005082,0.21453198627367961,0.09487935646782927,0.11087204539895944,-0.11388368632364528,-0.0524503655220745,-0.893305009841457,0.15821276968411432,0.1731141193493632,0.08837145535794357,0.44140140421093865,0.11236056958366449,0.08642913671715614,-0.3674334567512533,-0.023820304553538313,0.04672056617003276,0.13882757207082969],[0.038535576994412346,-0.3135709589517202,-0.32183368153266595,0.8668532603551655,0.1109429008909319,0.9812349226269724,0.9022717013926711,-0.36011328002616794,-0.08349499349191196,0.26564582404419257,-0.2950807841937573,-0.24058791985864017,0.33277373636857943,0.20586860209032423,0.9409760332725714,-0.9067801557772239,-0.11798798750906575,0.9372846670535054,1.0768512627894689,-0.06335182074474542,-0.22364557777599767,0.24634786452439988,-0.6979755178619714,-0.0032344269553251687,0.04503547785647925,-0.028124727564263825,-0.8750684998489301,0.09213914941546097,0.3041216194455723,0.26378139329475275,-8.139187143774334E-4,0.08502380796312822,0.08548966511342093,1.00229123380737,0.1806528499608738,-0.13119463701734724,0.012380186685262393,-0.08802727074814144,-0.25588501148612847,-0.27079728069773323,0.14792145764221684,0.21110245725313412,-0.22961212844188433,0.09569131687516666,-0.20277395223104364,0.42792564688564116,0.2868232732474751,-1.1076525016636403],[-0.6939217153540367,0.01983320565427452,0.2368301524088001,0.019814485227384496,0.01242916969942967,-0.1596047484092274,-0.051657959913181464,0.48338826444596195,-0.10884090841710556,0.1086240076393588,-0.18322108710522061,0.12750694339469557,-0.6383581607368449,-0.01559044240976415,-0.4727991283890943,0.2658441498183169,-0.2968441158760402,0.11487825496466963,-0.004494697467776535,0.023184676343335632,1.2765894718578314,0.9720481759469468,-0.21658378036965373,-0.12112017325054987,0.05153576636935452,0.36925498501837073,-0.0024954134977251963,0.013607452858772132,-0.06471285996043985,-0.16351057349938788,-0.22432029266483533,0.05046564538696991,0.12459419524737349,0.022800269216499885,-0.16826317750475958,-0.06132868412513691,0.05373307475691488,0.3294570771374952,0.13718617111122555,-0.19567906086461148,0.6760387389591621,0.25933006080981746,0.17786896540928454,-0.19379032238478508,0.036375738154125946,-0.07171463046121614,0.016506880065307462,-0.19372712608027692],[0.18268753754387837,0.23606881399965898,-0.08610825610578486,-0.06789124097260568,0.31535126246262885,0.15721847178816784,-0.45892508630149825,-0.2119331229949129,-0.30771181306043394,0.5775253729441308,0.046969851651167134,0.5111500729166666,0.05613580052653393,0.6509870041846645,0.40218351049904616,0.34594962232873555,0.14338529194810096,0.08911484444220887,-0.015248574513384372,1.3042911703649875,0.2825430009494826,0.8236043200269167,-0.21076623555443388,-0.26568156504164275,-0.23496724347075315,-0.08811804554324128,0.1118399221244961,0.017066561973430115,-0.060270888065435735,0.8892007901620597,0.23048289987352616,0.27965486539101264,0.19439755410118598,0.008255716529168615,-0.844678794519064,-0.06778361613028815,-0.2442360083827629,-0.7689148990723302,0.09204482186838618,0.17233572312632398,1.0339555335160544,0.22619840798677682,0.044189402187225016,0.06177585046622529,-0.2812698967506279,0.9680199213332827,-0.1183162040232352,-0.039107543597508114],[-0.02847218693873225,0.14870666528763576,0.19338482624408576,-0.581320134813189,-0.13879540474811053,0.8109904728522682,-0.1764433305947125,0.6088820946534482,0.08333601946459541,0.24475015757012242,-0.2154904079933455,0.048369420289751296,-0.17104938919881443,-0.20132197509771946,0.27112547243472573,0.21632623621478803,-0.14452560261996006,0.10391393114121437,0.0053988007428352625,0.016164605081643246,0.06005602955268757,-0.4586242804589217,0.10308171706095623,0.21302877174537396,0.2805302217758068,-0.07979302604280135,0.5790548278970474,-0.17293261766175974,-0.434670685667478,0.0609829270246096,1.5945475975271781,-0.4986235671701599,-0.04564146625149826,0.7391857790211119,0.11522454357656782,0.14871727977951618,0.2691459532366913,-0.400974167429074,0.16466706720264954,0.06861899303301626,-0.8020917158504668,0.20382887538443273,0.19370963454121662,0.35104142034156727,0.027653136151510216,0.13042732058812767,0.5047337915914838,0.8504033678445897]]},{"b":[0.2245363531367541,-0.5381076511336677,-2.5696338753836585,2.709245729249033,0.40955310829605973,-0.22666906651574947,-0.02795326479174623,0.041906073501931825,-0.4011950028947021,-1.2943028445322278,1.1919380893991398,0.4651389009385647,-0.593258960908205,-0.8225289857619691,-1.1992016971235528,-2.6086053127466395],"w":[[-0.10685102926343025,-0.10481194959575632,-0.04287151976929332,-0.40199188370573746,-0.5621945677406202,-0.4620970158200458,0.20053835585974736,-0.05204661810182814,0.5244606014431832,0.0956986348130362,0.1971212340966843,0.09225580757720607,0.10874586171816719,0.24797034747915547,-0.7145061646261588,-0.7501496143083438],[0.1036921758724081,0.01322984821443487,-0.17297191967453307,0.09729040149138993,-0.5087899557719042,0.05116819254012436,-0.22716825930234538,-0.2891434462849355,-0.12628776874581765,0.0299320057470277,-0.4518385751677392,0.019698364292022652,0.5754841706313064,-0.006129490792674823,0.2826387046784824,-0.07319250193881943],[-0.037188956682025626,0.042588290180128746,0.18353920915573757,-0.04936079075958577,0.0883375052263849,0.25380339330061774,-0.5739574549154379,-0.0163845592017047,-0.08067684819893364,-0.04038945547111198,-0.0212836914880596,0.17730025529963786,0.18902341843049653,-0.8381034115266666,0.7519338364508237,-0.5925460548209036],[-0.23404905743172774,0.19443558653091203,-0.024923452995139095,0.1201963620033431,0.06463833609174467,-0.3126542686207433,-0.19459353504350232,0.9189623053665272,0.2600293878020277,0.19905532812901935,-0.08228259921626735,-0.030136743080636175,-0.25206152608451426,0.2860403045038338,-0.3902752707936447,-0.31023006141514803],[-0.36980381382295546,0.9190000332178772,0.2027226354254399,0.2846590573188467,0.12322480789984094,0.2669112256682958,-0.04108691691789593,0.11312026033726039,-0.9016001616006335,-0.38704364865318264,0.04703705897008597,0.043458232431879705,-0.23739529587825287,-0.22841196162757274,0.7818735135701809,-0.15237648926854008],[-0.032963064100967374,-0.007051921871869737,-0.01134667921146315,0.3713924259568385,0.10345631400528088,0.03242333969095366,0.07982577066797279,0.10078703065299993,-0.23492335191812103,0.09390126583807708,0.7033933022623817,0.732852902438134,-0.08299337784858249,-0.03210484799925891,-0.0694630653966777,0.011194751758389994],[0.7247023161749491,0.011035381836027565,0.018561220115384688,0.24347415597964608,-0.056074416973063965,-0.20863414329899096,-0.0261785494692053,0.27090292140011096,0.2935675892359767,0.375800665371534,-0.0855138124044235,0.03141255936922356,-0.6507366783594014,-0.39517105005792197,0.13190769038349326,0.14079115546858245],[-0.18309420827956677,0.0777347565449142,0.29630881972681844,-0.03061808714555958,-0.029257136207951877,-0.2343017376620181,0.23451121708740102,-0.23850007792029665,0.13440199778093295,-0.020833555365292078,-0.09650408175270103,0.16801934819933,-0.5008213409612335,0.003142147108696465,-0.23985300217093197,-0.21286934275936298],[0.1010205479744107,0.4061286595048564,-0.027471349039000365,0.06830587792793208,-0.07917291014410639,0.3570746173687622,-0.013782504372368139,-0.10670281315062537,-0.09346454500309617,-0.15341543462677895,-0.9502074292447742,0.10159393014076104,0.05048346578979665,-0.21387666115211101,0.17124781229240224,0.13700216947359858],[-0.3036086573976869,0.09393667467761771,-0.2541086556756416,1.184948958900003,0.2584705125958645,-0.28718197489545993,-0.03945226893085361,0.21257828302228554,1.1443219352719383,0.0911849147203953,-0.3285637245182808,-0.17969095216558426,0.011908673812667617,-0.15083424769041512,0.10563732282153704,0.26353321022017334],[0.8820160222197624,0.12675214386147912,-0.040943520775224534,0.2919045363810298,-0.5941918517503364,0.05654124228205012,-0.15294847523625033,0.0919540162910021,0.20149567586385705,0.06565694635961751,0.9850031696846308,1.0506544103706963,0.042778094303446444,0.20305234182109125,0.4117276064510521,0.013634175687371318],[0.2848203730798823,-0.6930906042290166,0.112310088572251,-0.12277318270037904,0.15311569098431876,0.2159018576766205,-0.16346682019965447,0.31131108455813705,-0.08041848104482448,1.523351646912394,0.13027492102918248,0.21901482507915637,-0.06714606225194723,0.0016219256984506627,-0.2173906487827579,0.005674655663034631],[0.08442581368422465,-0.11459383197381574,-0.07306772718729761,-0.37352210847855666,-0.3209173786668832,0.3442892025271822,0.0335192328086886,0.137115465279443,-0.006307416619759874,-0.9440634056905771,-0.1255606377700251,0.19418528741987515,1.0269058700406473,0.022581661363273657,0.11687027717597871,0.07983824239649336],[-0.08989777225483984,0.048245368965023884,-0.042983376423716003,-0.5444828517568274,0.012154688128167486,-0.031194276359399052,-0.5003669153471177,0.17180195153220132,0.18248291060554211,0.008946773688263613,0.025185439380993713,0.05345174284885396,-0.13496530677285404,0.02503904591587005,0.014115813643857838,-0.5054245367809059],[0.04953924663551513,-0.9414610155162875,0.08250588658377733,-0.08192485317127428,0.04288733162737665,-0.11481718532374662,-0.08596300679559886,-0.07870163727308545,0.20458461911743125,0.12996972588266237,0.41668134651222866,-0.14147541913240733,1.020957971426879,-0.14933125298914077,0.06260979036145557,0.15075447106025322],[-0.4818142774177403,0.23243183495368647,-0.21659986629121913,-0.20678479478952477,-0.06672045457015954,0.254261359600214,0.13428732292870535,-0.12635516071794317,0.13518133002394792,0.18532889099509336,0.8557297323641112,0.00961625466353148,-0.47100337784475166,-0.05782603934954257,-0.057033803259442045,-0.1742018896867409],[-0.03510383219814505,0.8542125236175175,0.33679720991894924,-0.13112771004471524,0.04309627470224054,-0.15244630679212284,-0.3772598589376509,0.04958695984905063,0.8622228217515898,-0.08625574952175422,-0.39410361002738187,0.06275628604627169,0.027932381273101207,-0.1429212401554762,0.059016123379824925,-0.06830982065660388],[0.017351230482836183,-0.11421176410028179,0.3820756973730779,0.05103440454766647,0.08639220100572896,-0.8250982302570197,0.03433763038255208,0.9332097266029138,-0.6807361070669027,-0.13639097170044692,-0.9703475404975228,-0.2369587996919687,-0.0643679401527222,-0.27401329459175094,0.15824758947195067,-0.04635692160311368],[0.33110013439437014,0.46277899853696536,0.9667505073788076,0.3687698755116449,-0.0901038314522206,-0.13588568920944294,0.5816043737004056,-0.09977554825630965,-0.31254445680272874,0.11387633499578466,-0.07270764560658456,-0.15476845953711477,-0.3356257062971697,-0.12039715904528897,0.006716115592778919,0.14610525706367225],[0.4274649634249599,-0.024008806453981603,0.3434680954639872,0.07863088694842034,-0.3190560001442059,-0.9474264987942134,0.4319933421820926,3.967119393872287E-4,-0.5534633411174188,-1.016481520691599,0.045144666321861614,0.01869861288397832,0.5823291506669411,0.01656351624959239,-0.025577348646398795,-0.10829539418354528],[-0.17390308913085253,0.011566063152466102,-0.048173358976466615,-0.45973962741676955,-0.04871437242709612,0.21570784951273436,0.0816590981810815,-0.63954070277356,0.1801638693084681,0.05909586410429353,-0.02887603702088915,-0.14988855086624028,0.07539780457788113,0.05514684045830398,-0.15157076753538676,-0.13384510559189955],[0.6528276035870861,-0.22376873467033812,-0.2518185751819708,-0.040323626938003676,0.032062628197437555,-0.22367686261887199,0.9346982914970913,0.7661735775590139,0.13115916067377828,-0.4878447078629506,0.3444596203101442,0.017237766078969312,-0.0452084792553448,0.8721834629090565,-0.05230329215522312,0.08695221428456455],[-0.9432034509485486,-0.018748053896345904,-0.11534256929169538,-0.022495466134283236,0.11276815301049695,-0.1348454826380313,-0.5827900692177399,-0.06939683489425086,-0.08481944069101019,0.5626563471207757,-0.06336115689578908,-0.028306588297961618,0.43101953955901046,0.8230852215602595,-0.005333897800773353,0.2242957926562259],[-0.19318034484994887,-0.10395755536009924,0.5649921009568931,-0.10876942590936793,0.6417488306584858,-0.10900168985980266,0.03363660669922295,-0.1461623753799262,-0.11823240723493147,0.010855245147461074,0.41970862585746915,-0.0049224728457236905,0.454582488671785,0.015725506029863962,0.024980627383357663,0.8408695000307366],[0.003921362048241098,0.06674102311911403,0.17725875220099946,0.7519965941865332,-0.05442232930509079,-0.3456509260684936,-0.041086812617028026,0.3928004638801149,-0.015382324092225761,1.0756347175115515,0.03245010926195564,-0.060830689020466275,-0.3909543633283891,-0.7499937785620943,0.08307144104479795,-0.007561005357112964],[0.5230901070256408,-0.4336470745642191,-0.06326320407749278,-0.3664265809766094,-0.790225393554667,0.05693526844760041,0.6807486457380157,0.1529887350753319,-0.18897191679980668,0.017787036750816932,0.004344261252337583,-0.14724475983624952,0.08963951833853614,0.2085362297739379,-0.7611384640687995,-0.015438489225844733],[0.07811635652706485,-0.2781446891156556,-0.10959468160787014,0.02864138423265648,-0.18499823181509598,0.10857761150586856,-0.21285254801262984,-0.9133651011498716,-0.39831839518444084,-0.02760421986484776,0.1585321896816265,0.134984693152957,-0.24033447091673077,-0.7127442576048626,-0.09974515022315555,-0.3216434506855952],[-0.04747143604516232,0.009585626827884204,0.0553677223540474,-0.5899313040089553,0.11961425573965014,-0.09557944714610475,0.02854362318727717,-0.23809978346004454,0.9969694657426031,-0.11621903220489017,-0.07913125764352247,-0.3123030079724495,-0.2720505763389621,-0.5833623010718954,0.08271544403943015,-0.4186986853544844],[0.24636428625594023,0.7933615527927134,-0.15405923331801658,-0.23527132144242666,0.1335810354189527,-0.15520231807375034,0.18667912073436607,-0.7015250766195472,-0.09309788935838684,0.012887816274925587,0.07785519339651249,-0.006319222891125837,-0.012912150547288326,0.6005967870590259,0.3335461561782496,0.055799461265436334],[-0.08826608141405272,-0.22213072477468382,0.12304408530493847,-0.02371986357002939,-0.03530957489419116,-0.17363192140528827,-0.06036634091327046,0.3381583914179017,0.06781910097795302,-0.055848655826048456,0.687280393415401,-0.09166022898127921,0.08479094892429313,-0.19200393004545221,0.022859905640381862,0.436327878822361],[0.7654384107012118,0.016631035626647087,-0.06193984298791868,-0.23226275965172138,-0.11129840898928305,0.226577469598923,0.08908696540814616,-0.012663825599745333,-0.019991064325717383,-0.09459672904631967,0.123584751918819,0.0237938618066649,0.856398434067579,0.2543821208002431,0.13669860792901584,-0.5987149121181308],[0.291647690024172,-0.43780607978212827,0.09248548385510688,0.09245850698965109,0.14723961858892562,0.14785287374531625,-0.17205173022966344,0.39866437088331985,-0.24079464489833632,0.06113692849759782,-0.02280239092869276,-0.887428955230811,0.2162233546517057,0.2388425526583457,0.7079592879106618,0.17452569013560335],[-0.05620545936069166,0.0492219028410645,0.21757704970867145,-0.028943814057429143,0.16330860932928454,-0.6794238249548149,-0.13483694576273964,-0.7844115756747451,0.13356714515135082,0.17088433715528697,0.0014205118245999362,0.13778019024476917,-0.7875731677819604,0.018787580176970964,-0.1994798993333009,0.01745729338739003],[-0.961498027439208,-0.07971108067472082,-0.015062015670754707,0.14440890241569804,0.11639688912872288,-0.0988219784753496,0.022953252893335104,0.44252135426450756,-1.0849056703736495,-0.015912903687286914,-0.11396132534634823,0.32812710545507207,-0.153008258031258,-0.008231456232267557,0.595130516473981,-0.05577646524054528],[-0.044172965688723406,-0.12983279361311004,0.1980486066713156,0.6229047690366541,0.1420625478854342,-0.040855517611587025,-0.2245771071058878,0.2299666865726351,-0.01347459557810406,-0.11873446855507902,0.025609108463001358,0.11418358266017581,-0.10702009432477169,-0.14218795297929404,-0.307074528437695,1.0013331924102822],[0.04606862076589016,-0.3546364853669617,0.2905963023132109,0.22604852844948198,0.723488898792447,0.964228761930592,-0.06198005092418946,0.12350596403454073,-0.8938603210046032,0.0674746682293035,0.047197536881937785,0.033617435412933105,-0.011358627756299576,0.8625539887086187,-0.10845791803844401,0.07578421256449203],[0.16794669240765328,-0.04839408195677097,-0.1686213062264687,-0.25720696741015725,-0.20382414041873542,-0.6805807683942476,0.07495110581585379,0.2291220078134389,-0.7105642567358599,0.06283256092036583,-0.7645047508243789,0.097530256957043,-0.09083816141798531,0.05864178751233797,-0.1277731545729751,0.03558538146827452],[0.06285945732324875,0.10477618350140792,0.053283598641314316,0.03142340711782293,0.05232522172317096,0.8899195897846236,-0.15229557817940942,0.007938729068610454,0.3907556643353891,-0.22634868230405417,-0.1316925731782299,-0.798140823367884,-0.3759852536114515,0.23076045859456448,0.12186489672067437,0.08401041570351658],[-0.10786506524799731,-0.13880689983338365,0.16487968296533792,-0.5495269530859511,-0.06807681095387072,0.1950052654108671,-0.6637780951919494,0.29753064549480246,0.1548945519583706,-0.8162966990114946,0.20502166016932763,0.09597161350143786,-0.682114789430108,0.8995456767403517,-0.12535112006259103,0.4813442312956593],[0.33020690451532414,-0.2993195078727043,-0.13693946111647937,0.04561613137683211,-0.018711113149777175,-0.12060201741306295,0.7235374146405227,-0.16250815241856917,-0.40389180228710897,-0.06852028183385632,-0.17608164603320364,-0.06569546142293398,0.09177314980756228,0.11894954423512547,0.3398161275406292,-0.3792479944008321],[0.16520158686416433,0.02217995908611116,-0.05102091337467836,0.6559065086909375,-0.08372038200044163,-0.8323261511815166,0.775524492013103,0.13007176655783872,0.1088655256572186,-0.4762662408467402,-0.04172107828077725,0.011606270977045485,-0.10229477934392957,-0.13938242496559314,-0.1943354230128003,0.4785757646004177],[0.011632819735978166,-0.08438475097937562,-0.20282144947555752,-0.352572619910028,0.582296484615048,0.010124966123047792,0.06627479168421073,0.3620739597741868,-0.14269661495722502,0.07851869718010772,-0.08778972124761597,-0.16015217459849163,-0.07741313158311862,-0.44220120674132035,-0.18755286007333258,-0.5331777006220088],[0.7037476521257626,-0.1791076611273087,-0.03354916412868865,0.2944821802596678,-0.07751132272066015,0.09194401682635013,0.7368056831672128,0.07470300550536468,0.2818309583693476,-0.006790216522724245,-0.11748463264114722,-0.0494618527753149,0.32402177525199405,-1.0142715422585005,0.2376835419928687,0.19815695479178777],[0.07699737408861623,-0.08459330968595241,0.1292574098733987,-0.09086420756924882,0.14438333760510239,-0.24167527909460268,0.09622880043151352,0.04935038446974182,-0.20373442277611153,-0.03584737778993996,-0.3603303522277218,-0.061261397421288735,-0.38975938527273607,0.07607865234190908,0.05428704701100484,-0.7718478293613288],[-0.03361224903575929,0.8241850196999382,-0.5356234991121143,0.3687164257207328,-0.4974686169315391,0.600376146503177,-0.8397257780747496,0.30851062920552996,0.038655994076415845,-0.0259010171948578,-5.932796297994672E-4,-0.058666526330902816,-0.4112271713279651,0.17949389973351196,-0.05928916334215239,-0.019299710449141628],[-0.769479870201819,-0.9945400018615185,0.11640637666489914,0.07171846272996735,-0.44833332224627176,-0.05215353163154525,0.11801128941066072,0.5048601547082745,0.11119835800871358,-0.1151193273093922,0.20790444395234062,-0.19007594183444013,-0.052234195674386606,0.44070803794508673,-0.06582336578550321,0.07998415084120819],[0.8665795488358097,-0.03561212185751697,0.20467155601620332,-0.001351981681967998,0.08477322219974734,0.09083754129328248,-0.03717288370392363,0.11788264259868855,-0.21786819454917478,0.024997060953917207,-0.1405412995807588,0.023604102790205493,0.7409724241905041,-0.7867597603256764,-0.28368721464663615,0.9620420427318424],[-0.22342008714713568,0.17899063304120147,0.07773278479940095,-1.00671816411584,0.18873948073460206,0.16280263053620253,0.12958211862857302,0.2299717620043543,-0.34025878365874496,0.07712517470507675,-0.02920551287162159,-0.26562714492454575,0.06172355503324328,-0.15683259178581635,-0.14822429755922675,0.054197582707755765]]},{"b":[1.4882011583053063,1.0035808054688498],"w":[[-0.5522965593642659,-0.010045379921852421],[-0.05453255074357939,-1.2250153629001599],[-0.30365932458243516,-0.06692942856989957],[-0.2370052048230014,-0.1588472521012966],[0.48106658872449376,0.3892701342591885],[0.2867124842479476,0.6834380190383808],[0.3696372389430284,-0.4561962265629556],[0.5186554577682192,-0.8359904736248708],[0.01913615386077815,1.1366797800420874],[0.11602313267220542,-0.0073556482425478475],[-0.4130342387389226,0.05890026697536822],[-0.40674024951157767,-0.008180638052957358],[-0.07715848194543672,0.12298983554346776],[-0.33545474766617067,0.29374411155436203],[-0.5090058995794228,0.9217277202373131],[0.10651221571502276,-0.1277658322440797]]}],"dimensions":[9,32,48,16,2]}
