{"arrows": 5, "futureArrows": 0, "activations":["relu","hypertan"],"layers":[{"b":[0.6708730283186698,0.6884039877528575,0.6461044580943586,-2.7380998512422146,0.2414865718367762,-0.5694580723121425,0.9542938645215832,0.21164186756971176,-0.7727436527068626,0.6435725572507363,-0.3211273390503589,1.6507780287974492,0.30094597645319865,-0.5348661482447329,-0.8731253657317476,-1.0414898376150736,0.6128348747230009,0.08334689923970025,0.12030705042028292,-0.0926528260450381],"w":[[-0.5377442679215834,0.5411887736763322,0.2090788657421894,0.08859225594574367,-0.7373505076782433,0.5270923015970805,-0.386694321937484,0.7367893957123615,-0.824907503208969,0.5236586533559319,-0.6796874219108271,-0.5116663069851652,-0.3787263812970281,-0.4529819451421599,0.9122137847812342,0.23760590756215028,-0.7937366990299853,1.3816883076524402,0.6692252959045399,-0.6270475074032437],[-0.3565356350074637,-0.005029039535912681,0.03736069167005607,0.31733860453446117,0.020709447554600215,-0.33649083716051154,-0.006441461392434453,0.6805618812941897,0.2617750202678334,0.6366425365426442,-0.2528472036967517,0.37794691018460747,-0.5743603139672544,-1.2756738199751598,0.025094713207355908,-0.6004607221218825,0.3407166848039872,0.10347241110217756,-0.3119307814493134,-0.5800284647517422],[-0.42818700219041306,0.16915323820589784,0.14192629296742873,0.2315891266309767,-0.1521418722163681,0.3750161292546461,-0.22842548522068523,0.10600229963791385,0.5779902151803232,0.03353349589305122,-0.570507277761151,-0.9880328060694021,0.4034858113466991,0.7400433937079831,0.21037955742346337,0.48021857227577025,0.6413088037737524,0.019488886824020307,-0.0319304439856665,-0.6476749892156756],[0.11957307365132262,-0.03315752378433066,-0.32904864508676634,-0.15955914743565452,-0.23775710542308276,0.4103547865539364,-0.3022842037498336,0.2750103658196346,-0.26132744216797865,0.16076574653255254,0.49339900478698645,0.0887499453034191,-0.13465437739371866,0.26593723854651663,0.5542215166179807,-7.264780622876776E-4,-0.07266753878425491,0.4596145197584263,0.34158079549653403,0.35032363949449885],[-0.009201757487423013,-0.4244996570086644,-0.3954620079620507,-0.4354037487598065,-0.24421391533253312,-0.3667523420611726,-0.1637547952064652,-0.5551862620209826,-0.3117145717289775,-0.2969344171384411,0.3669534176749078,-0.20002100367252107,-0.28924129847348384,-1.4197180251801316,0.20461525237510997,-0.7311818070885656,-0.23176103798075837,0.15917561485574822,0.00995421581506939,0.35427254170871775],[0.37450085232570124,-0.30390536425947323,-0.456233270300171,0.3329715871873451,0.3447864511217695,-0.18341888530258282,1.140270991669394,0.6221222045758977,0.06792212808819074,-0.046784551808337294,-0.9818285532846924,0.14954859762274147,-0.14125747145757478,-0.39904207039732464,-0.7682365960643446,-0.2404079037265215,0.28821272698951494,0.7078990133950502,0.21524707653061959,0.20030427078032742],[0.6247794933351761,0.21581920031866783,0.15455985798857003,-0.6172265977628396,0.3656644829486484,0.4714412628670436,0.7773659668442158,0.04903402473759333,-0.09877276972762386,-0.11571478806176348,-0.5213323275338814,0.05158387504801055,0.5116272942446558,0.11934757360202303,0.384590093283502,0.42080174616266275,0.030102152540159657,-0.20207181679935252,0.6137923187647354,0.10435792778005133]]},{"b":[0.3052481269886673,-0.25601711078972345],"w":[[0.20575620146952803,-0.17946265766538405],[0.20655508519097115,0.07008222490961301],[0.19493245792022762,-0.7188749002447603],[0.12703047298590986,-3.6179682523041173E-4],[-0.26360046841298834,0.6365172370668337],[-0.03380901264118398,0.11780659219213374],[0.8036491860611079,0.003890202983710121],[0.06066792197365027,0.31103755061187044],[0.02268378156123323,-0.4366766739973706],[0.006974427237631925,-1.4086818497998936],[0.06071332531844026,0.7442821450377619],[-0.3522727021696257,0.14154867168122942],[-0.21093471863458899,0.031123592860218534],[0.016445972894003583,1.171034358648967],[-0.3701449750384875,0.6509157719655504],[-0.16649196537518474,3.438190367660021E-4],[0.049853868906356326,-0.19357600586021967],[0.09368385869628487,0.3367217906639954],[-0.5067374302330907,-0.1304704882134868],[-0.09739314414408141,0.3180213508314281]]}],"dimensions":[7,20,2]}
