{"activations":["relu","relu","relu","hypertan"],"layers":[{"b":[-1.1752029715929868,1.1453998170749267,-0.8999487156061085,1.5430001292330549,2.0207138090323298,0.9721693777394714,-0.4325483629614786,0.8825723194135322,0.2452305618348614,1.1188669528720951,0.22363965637097996,1.580725673074297,0.5540968144408456,0.05596564697392603,1.9500934126571872,0.37044994737551523,2.2113341682221783,-0.7975716639275323,0.9191901686817554,-1.054393217706867],"w":[[0.21335550668983944,1.283734252029882,0.5263435501491246,-0.42426307167539345,0.2546615949092367,-0.6553736930467806,0.5063012746275952,-0.7554488619936066,0.3906719056324007,-0.021112188747355598,0.27194704767925115,0.14881886471767003,0.13338116738451672,0.2992615125157318,0.5303009128494521,-0.3426101180709132,-0.029082245452238545,0.10194709278965891,0.42986995409345274,-0.6973771917442916],[-0.05558373279126583,0.6906978418262077,-0.059199091855236065,0.190414228867115,-1.1538928452441026,0.19379955961463582,0.47992816308025943,0.7550499152262025,-0.23571081341839434,1.0851376192626363,-0.10456684429251042,0.49272441660447897,-0.40735031116193243,-1.05391291141563,-0.4170670985149125,0.702157990640554,-0.5051956441624232,0.3959862759926934,-0.2567499878846012,0.33487301432975014],[-0.019523693289215095,0.6460920018886381,0.6239137274652009,-0.06930047045319093,-0.4372897727689825,0.9076472993505391,-0.28798406125634646,0.27491440050518484,-0.18160008030884783,-0.1613884825046331,0.031627637338337,0.008887135877407283,-0.39215238831974225,0.27919917069502476,-1.0886112550690044,-0.11900576223933673,0.6336571352587619,-0.8036705169771949,-0.21154896247974478,-0.19608920243262765],[0.11763028944696216,0.15927270573732552,-0.30831444273798997,0.20374939581969934,0.038814320254038505,0.41661072793664666,-0.22754734698335546,0.1945330521432126,-0.529443871469375,0.0941723167904785,0.9825060776023685,-1.1029857319271121,-2.0854388867692455,-0.08843033949196333,0.12339681616322958,0.06757787021962015,-0.23360319999597196,0.24949604848718343,0.0796309602021193,-0.6859651378147977],[-0.4067023023798093,-0.08457474434600334,0.2763955226077676,0.681652463486259,-0.03634410038062574,-0.8756604688689481,-0.9601193930591594,-0.38598122726940665,0.015451125401496513,-0.43249154753987085,-0.03677980421531868,-0.22734657316825868,-0.07181293736152522,1.11655648305411,-0.3258000214885611,0.029866733252854126,0.2144098917871005,-0.30994619173159926,0.12378540094802505,-1.2115171031353422],[-0.697216784213361,0.13703448159621937,0.21101693843337724,-0.5017435519081882,0.598590747252025,-0.16894304038646935,0.20919315516503229,0.9472315363500283,1.806869350575058,0.05517678970410387,1.2154686799760543,-0.03823786416436353,0.3003591529386353,-0.018485349079849174,-0.5805860677458342,-0.2523753685431146,-0.10997225554501688,0.15341975129851793,1.3617618462608336,-0.5198259458138861],[-0.5108199653534808,-0.11505880680150475,0.19257057732307417,0.22899354754386064,0.015084661317138523,0.18206765882010437,-0.16162448350414854,-0.0721966545044905,0.25265108578818274,0.22228447112557187,0.5410096954923916,-1.378481480111883,-0.9338403660793653,-0.43761034530902854,-0.3114958589536745,-0.08736141149856792,0.453009671268091,0.23189738377371966,-0.5857543238109342,0.24417958370469675],[-1.163340738643105,-0.618212268291888,-0.21587326223527695,0.03789130428439891,0.29453113997142016,-0.1409002438033593,-0.05456414423004184,0.5685012389025688,0.4523916160011576,0.4021185778668859,-0.5209337516389987,-0.050940927520317036,0.3483175372107107,-0.14459411097258057,0.06141389046229023,0.29014865981981447,-0.9671183472976186,0.3498400830745989,-0.4807736030001866,-0.063278047186542],[-0.7444579861703523,-0.014855703850649299,-0.3492735277092494,0.2625638526698399,-0.9592267622131604,0.25893732765314215,0.47091214948914367,-1.8574728431210912,0.7654810007560231,-0.6635632770136433,0.06098925833379136,0.38132414986813923,-0.13725513879624207,-1.0723338819951853,0.05033496357277273,-0.17656502049970738,-0.3478905151910728,-0.21512212050089774,-0.07609708970535256,0.20356183030389877]]},{"b":[1.487085662959334,1.368254332248769,1.3725714554647994,-1.016922012268568,0.6956787618989353,-0.569982590125685,2.2615598822342085,0.6562054007384595,-0.26973498011212443,0.5670243892878246,-0.11926847390158604,-0.10427929036602074,-1.109345917983044,0.039226656555843106,-0.19992130260784324,-0.39484816512963933,-1.6328828551477197,-1.2437971630633828,1.3269144355527902,-0.385646312777176,0.8977771984356546,0.7620624373067578,1.316710593792862,1.0874240068643082,-1.4494745339612882,-0.3085063015982646,0.3210548260111921,1.4231489408354616,0.3393276221411627,0.24185404218828188,1.0398728540782542,-0.4129231980763359,0.24104456039681885,1.1758138921011105,0.16874664668375106,1.3870575915731025,-1.4698307353942992,1.3891131794730387,0.8132589901819766,-0.9790841502574438],"w":[[0.24114811954185614,0.0334215162416874,0.08890749268508644,-0.0385542950070072,-0.46867473491015316,-0.04890853208176105,0.11151266102368264,0.25538999690685654,0.3793642690873178,0.060201075137351436,-0.20965503925867013,-0.09126155170378367,-1.2167160564078214,0.2591378415390071,0.0987055582760477,0.4712550161652352,0.06582643038764935,-0.20415144890525364,0.09289547082544514,0.11818752771226902,0.3815003216063293,-0.09199350292978316,-0.22429582090383482,0.004205716200827865,-0.4344576330170174,-0.3775152064490551,0.2193662560337622,-0.16716482255655638,-0.1637135989577298,-0.30637664423427297,-0.05119546594233525,-0.23641736035841066,0.3431737891740079,0.41600278323525225,-0.30646631796379326,-0.023600124346736927,0.4453510653414735,0.08193564681528791,1.0846734643990765,-0.18927630896152015],[-0.2045734576843434,0.6568871270763199,0.1441771880083171,-0.8814648724338314,-0.0909220482539178,0.26387393203807114,0.15659941124412938,0.5336039862537488,0.07420898088306165,-0.008606944930387243,0.0180753511593611,-0.18760955440989902,0.15227152308493613,0.19191021953943305,-0.2914725838754624,-0.612116478240403,-0.006005725680839636,0.35107571671073695,0.00839151270165953,-0.1630226541741459,-0.2139791977604968,-0.2891721865179343,0.7177244117893732,-0.07285539630318508,-0.228004666523915,-0.23131088197804994,0.15159818418967944,0.49028755593938805,-0.24267917341067258,-0.39690588006057625,0.023525987339729833,0.2873004781008311,0.12126692085774132,-1.5487335539064049,-0.6236837008448697,0.0783915414664923,0.22178109620461675,0.17257199295647482,-1.6032810450691048,0.1266916227719449],[-0.4088683825002384,-0.023203876513623416,0.15314234269421848,-1.0388379934882728,0.43640711246077624,-0.033779662481126495,-1.607674683287812,0.43134589964428355,0.09444214713310613,0.7997204252050403,0.11871602077972469,-0.28130910982488994,0.1715574461072313,0.7062342875090395,-0.9316292426428532,0.17124654161532776,0.33719988316985927,-0.2247245623096914,-0.3644865288759528,0.33280489206702285,-1.2139420247081774,0.08146974638831404,-0.01352397680712535,0.021632494565806668,0.21698542100722748,0.4280979130750781,-0.3756640336700084,0.9103329101060756,-0.3646859676338898,0.7355441883997704,-0.4427842567293522,0.7523321322169911,-0.03163639391259303,0.47008917114087456,0.38945589904143724,0.10651663713272949,1.176169963159924,-0.025766956989076408,-0.08758081522731181,0.4459556223027848],[-1.5636904856801133,-0.7250091671210571,0.271734970533416,0.10456355081757697,0.7241622844153753,-0.008513942074764644,-0.4402568171158282,0.05146710752677692,0.04777362539208215,0.1114905315169661,0.1739920195376489,1.0847008637804731,-0.08362252896223497,-0.5163581329722249,-0.0036124926514104786,0.2838794867415886,-0.5556034105548938,-0.1133142148979676,0.09059855790691541,0.549934457591585,-0.16786830345230042,-1.0341228892432621,-0.20414368946809353,-0.09675857312588826,0.04315993187028295,-0.2212553459532732,-0.3104133388903642,-0.12616693525969455,-0.3398731231383155,-0.027038835959644333,0.0738838516595488,-0.23796613935474922,-0.13650521374599545,0.20615893601921875,-0.19046276120305172,-0.19834464548238523,0.6062323408607734,0.03229228193325858,-0.9046544788284523,-0.29947985484137063],[0.13303597827202426,-0.16880340631912613,0.23281965572159796,0.08914870679364754,0.6583466468135897,0.20796498502705243,0.1430642508162607,-0.003308682728995236,-0.06081596795080066,-0.16001173879232644,0.07302346363853597,1.3173705076040203,-0.10181230199454001,-0.21037875148476054,0.029925038248790208,-0.9300277497056638,0.2826597507498998,0.5872838463797756,-1.0043198225678989,-1.5132931721158525,-0.1803251844552157,-0.02105968562014372,-0.3105547599357162,0.2497933669102892,0.13162211503772522,0.2646372365474023,-0.1496175309079434,-0.002514181743005439,-0.15872053736141714,-0.16176496739106425,0.45462406412230316,0.25063495828150867,0.15297666312510208,0.0028097263487316324,0.44466662489062897,-0.2980266097868449,-0.19868738658704765,1.210146020483586,-0.04961247653292712,-0.1111012067736454],[2.9158715706086025E-4,0.10535854915904656,0.024337303025710362,-0.4467738966644842,0.008433397418437464,0.17691051826238774,-0.4882362146474354,-0.31392195647245014,-1.016820796810757,-0.7715573273788505,-0.13011436428050863,0.3190835079009065,-0.043190190272658135,0.2661145318871412,-0.07269321425663251,0.1353349412128613,0.2795408001382736,0.6939151300489119,-0.10871472923258786,0.1318053569880221,1.6344714557940256,0.3454621235407659,0.2911737070264402,0.25949416875173614,-0.0783613329869993,0.49747085063909513,-0.055670926937298915,0.005633175316454853,0.24351041820094355,-0.6783734883353293,-0.10906754132813172,-0.29544127968525663,-0.17997979748627377,-0.40100824358581244,0.06180189161882987,-1.200812197874137,-0.5777073979943579,-0.6928010612883109,-0.2617652808836529,-0.35307653961575436],[0.1441808027910514,-0.4021473283118356,-0.44166512724529366,0.25718087385806376,-2.3870706791418255,0.4411285948112559,-0.11831094910993456,0.39383203099168484,0.20732199566559062,0.35819836114121506,-0.3460705114329873,-0.27105880749208794,-0.029813121962377263,0.7450157982472599,0.14552568987569348,0.2642040550345689,0.016416290581457757,-0.07433786782668106,-0.47882088291172836,-0.024558372160125623,-0.01594999683454703,0.135009044637952,-0.3469311661014732,1.387764278043245,0.40732594276191497,0.847992501980478,0.44835946288511475,-0.16390527669036986,-0.3621108945525461,-1.0603999900686252,0.1455499687800481,-0.26713898859690755,0.16832566920090694,-0.5025265407571884,0.1554974424014506,-0.06960710706735694,0.03214358964947013,-0.4626029683892148,0.21657125373567812,0.2633915343108031],[0.07133490966363934,0.24322541563170025,-0.8200919396480877,-0.009815058835893401,0.12603281041935932,1.1565196665119974,0.038298183304518556,-1.2280194193521785,0.013064575420357938,0.7891922195055606,0.48434817142591646,-0.28058496689736945,0.21595516767083708,0.9302026697528731,-1.4285208180255504,0.08724752252558354,-0.09853051702607811,0.5411281213267158,0.3219963095791964,0.22000572223394713,0.19884417583090735,0.4600972538921316,0.36777110828424225,0.43415512711563714,0.03564084414264112,0.18195242738284928,0.33893028045768725,0.06394903087699753,0.10517373920525167,-1.1008414395833035,0.10355697753493986,0.19144458345999954,-1.6970661981706616,-0.17500075380980784,-0.03845288838064743,-0.05347888375275082,-0.1701960240233139,0.5741295935832079,-0.21981980779610216,0.2001606061604434],[0.2737770372728479,-1.668315806268802,0.153240004126262,0.16951241736746084,-0.1429647785988015,0.5686729598794542,-0.030991038536839044,-1.2631745255962707,-0.29551804614436594,-0.24052774778114228,-0.5626860002455498,-0.7373929585468143,-0.14083796429916437,0.5183177545053892,-0.46739000954147303,-0.09057924831589889,-0.23369206807380108,-0.034196748340271886,-0.42804575671985245,0.16839404780409148,1.0841455945298017,0.024181242111824347,-0.4178152812605573,0.9205383555963481,-0.4700604273353768,0.0630896857314203,-0.21111496627961465,0.08209431619681605,-0.10647427713078517,-0.4475797589994649,-0.01408983353061899,0.7460520683454297,-0.5672502528994458,0.012559034530008341,-0.44047322580189074,-0.2896436259974659,-1.2250245245936058,-0.24019119308976,0.5726095868660286,-0.20203633454874356],[-0.5925835785076384,-0.1521364954265501,1.426867214339234,-0.09588577599991277,0.17419190200931065,-0.20895319995896341,-0.5496553070320753,-0.14432972828157128,-0.07330350625775783,-0.1437982134544711,0.14847694217064114,0.05184499479723951,0.05869944802213724,0.08443264305527776,0.33021335892190395,-0.229486649855576,-0.7923886482791821,-0.13771350543864988,-0.029570057011098907,-0.5446872281109985,0.041381938272397424,-0.34881994350696366,-0.7253001302784047,-0.6983120535071433,0.7981795294294641,0.18020227553578358,-0.33390730604220314,-0.8871760001036737,-0.34201315349805267,0.055603834087703974,-0.21168017127537636,1.7068238446229622,0.324704035902491,0.1551360416869082,-0.10921263940507635,1.3089117759290287,0.02068211602273645,0.09855929325636631,-0.01865703236754378,0.498591950290643],[-0.6141551839502201,-0.1673005937966842,0.28546555933719636,0.11848621428667316,-0.10941006918521487,-0.4033832121084001,-0.029927897171382237,-0.30271221248938723,0.9887963355935739,0.04382057560482901,-0.5453605683367697,0.618187784777047,-0.21614069740138325,0.20401568341031004,-0.18254838088797515,0.060793972177979064,-0.21589977516597422,-0.14652178685455067,-0.5110540782457543,-0.025282449417600886,-0.23000923621604122,-0.8019184259375393,0.1605867322856585,8.271186844809597E-4,0.312319808895434,0.08786985594622322,-0.10353959579129249,1.031077308799807,0.04731206474625295,0.07027205718956041,-0.1827617948974706,0.8286489056536401,0.7164319196047316,0.34737928203484747,0.15768281208532925,0.11812313873602838,0.06275309485709069,-0.17140977666570376,1.0212429593793684,0.518314765310816],[-0.6076563943573672,-0.45828889369455933,-0.3504050705457724,-1.0036576187626187,-0.23737386505060684,0.04975067823967616,-0.12073870464222666,0.13351774188465362,0.9408508987094251,-0.9298245528756446,0.03141666665582718,0.28138045308745535,-0.29161894221514123,-0.1468158793356107,-0.15401670392658603,0.5368281956545148,0.2498388056675866,0.31885599804442205,-0.7854891851566861,-0.6680928446613084,0.12386772067045174,-0.9606970369276332,0.025342260677032845,-1.0354162598240668,-0.055484381873693596,0.9722955013293818,-0.2904030392847983,-0.2242680987698967,-0.4161405900289039,-0.0643469907365409,-0.3222811535857751,0.5437903621861975,0.12578713502988387,0.17859814123291143,0.7793190432088526,-0.776083260331771,-0.08147186247428702,0.227354549474357,0.7057944608597537,1.3406608604220556],[0.6231468141022967,-0.03315971205513711,-0.22907063439315872,-0.11240794327624877,-0.026021643358979434,-0.7171931257233449,0.22901303020614666,-0.930627527581568,0.12654845806445786,-0.09388660449150257,0.19817860370400936,0.006195595531617773,0.12467936928660316,0.8769832653084646,0.2117654162713173,-0.199896213821097,0.11338066703499947,0.20227865598050926,-0.3023364656794851,-0.15913207728090856,-0.564894209804297,0.18493478489547316,-0.7173130687603059,0.1546276283008733,-0.28372821947374244,-0.3800998091341938,0.15320473330199377,0.3296601090773447,0.6216236495375965,-0.2982854598348502,-0.0506255831209109,0.05544975710310231,0.14031830522897185,-0.38461074882811935,0.06605387729269065,-0.06366426466849479,-0.10355677612303044,0.30981206459030747,-0.09911098500975773,0.060344577164023624],[0.05999355680070242,-0.9964980372578711,-0.2218559986405562,-0.026051772801179825,0.35982382850105205,0.25342450114291265,0.16252760381317533,0.2095062448056221,-0.02065296074725806,0.11960774227604809,0.12975863570348115,-0.5235598829602328,-0.19374377207984322,0.17699334460069288,0.770262458247243,-0.28623463951379574,0.7544969559568584,-0.010604729662261158,0.19149767381603208,-0.22417742853357167,-0.02703881727256732,-0.11303758613677051,0.2292417302215992,-0.23625341224111554,0.5836929002627339,0.2513582992601482,1.0457718076036002,-0.3573833586094986,0.3936622671522533,0.10638252411243032,0.5622805861065128,-1.9887877046891935,-0.15951861371951823,0.04853227189175942,0.12395715180245456,-0.15842902174323742,0.11703412785198837,0.2776389255215065,0.48841178167811694,0.10626319504946134],[0.5593513517429893,0.5086567332502985,-0.7883884540991457,-0.15665030836309518,0.42146915537466995,-1.49351986077947,-0.01592270482093894,0.3040429702682567,-0.02444463900162691,0.5263998819577893,-0.21164267332715286,-0.24381457734963333,0.08169581012268279,0.17198227674428038,-0.16619524972553817,0.5423338137016849,-0.21869077045485355,-0.04101710350167632,-0.3286769449448588,0.4194633433189477,-0.08345416505772082,-1.1296879689389572,-0.11015985236271264,0.4039374084272006,-0.1777121226220453,-0.1783763909671806,-0.054023399591777016,-0.40987319998205723,-0.8124775269250055,0.048073105255248924,-0.05630806689889251,0.10103945898638206,0.07256939929082659,-0.6795634130815736,-0.516022606737207,0.21399444751688548,0.13870285787062833,-0.6701677705855467,0.6337141126075319,0.15754033703325265],[-0.048807381078820745,0.2082201935331837,0.20775242742015226,-0.04355603327108939,-0.27183702678495064,-9.850322586376018E-4,0.4185562497740535,0.015391100258699058,-0.2727164065913415,0.3974370495677274,0.14212535255749764,0.054752853561713194,-0.6995497716752844,-0.17954792059108957,-0.6007486516016858,0.7532155830424868,0.2678644468501702,-1.2317765815241295,0.17634251653706826,-0.09554016483733663,0.5527690413183479,0.13380724657268578,1.0546335833299048,0.02550496487609135,-0.05637650630603378,0.13528118303920642,-0.11291839550221341,-0.1642109005508301,-0.13321323583429528,0.36487794910760585,-0.21080239393221759,0.17528191363546755,-0.2754953656849124,-1.0679862240615872,0.10806739986022117,-0.36426589641345364,0.03261575132630189,-0.25488681173264766,0.1613197597035215,-0.040511863476668394],[-0.10099519432310883,-0.18238237627786247,0.07244212335921604,-0.12281532660480683,0.2041508579616255,0.026007433954803538,0.3018901877677846,-0.04107829132007377,0.40324666686184263,1.1471227158655994,0.6781380333621698,0.25447338219789967,0.05627495520409315,-0.548858192083783,0.09997904253395783,-0.378027349651069,1.0347784552697028,0.2394195247113355,0.1488734400796482,-0.6741957104452332,-0.4533497614704428,0.1590820580951105,0.03700086400183017,-0.6089084993538982,0.828857089183753,0.0098604779430719,-0.6514670697161119,-0.1488195814481113,0.061708972301199094,0.33915181142821405,0.12536642122150862,-0.11670545625780149,-0.12455541322598179,0.19646302878151198,1.5950152637357589,-0.33626269694997857,-0.18424485763026952,-0.8352972080868628,-0.09876519903051438,-0.07496471910921103],[-0.21873825635359223,-0.05082371329560864,-0.12437937753091866,0.4443326182135903,0.85978004840827,-0.6936991303569172,-0.16061499002286914,-0.21389707404340605,-0.05340757837786131,-0.4130670839326108,-0.16968017015138917,-0.3244486888505631,-0.20388244629141927,-1.152178473815255,0.4201066117001428,0.061517309681558434,-0.18295209785264843,-0.10400620216296141,-0.11587530681861664,-0.005701823057781928,-0.30209318482998615,-0.2152677424120394,-0.04258973115126221,0.30722386688477216,1.0678332671968487,-0.318011903123353,0.16310334855121653,-0.21267296873160055,-0.11572643374820091,0.2519732435407041,0.6229303305669835,0.2962150516992064,1.0351066078209643,-0.49271250063933014,-1.029633809488446,0.08240534351582061,0.1753561905172005,-0.3014004872525175,0.1836920406755649,-0.3111357599658815],[-0.4320803627729045,0.3569702363274837,-0.40277045885118956,0.3841496607064479,-0.04117406187012022,-0.12444109573871345,-0.21812260186125812,-0.7931699666387426,0.3711068711762299,0.9723544243019302,0.11968093061906049,0.29305533420647,-0.5740368516697077,0.10861345087635067,-0.37952690003499023,-0.12931208485351003,-0.32618782986553035,-0.7060234732175558,-0.1897112232773554,-0.8910625494507942,0.07440023981776162,-0.2380503674865242,0.04143036501478625,-0.2518620142398739,0.42486508183701177,-0.2767041915418881,-0.17752556697400385,0.04997844738761453,-1.076219602657281,0.015056551693569016,0.19711495961513342,0.1001068746645849,0.059470761378714015,-0.10149295458939608,-0.17188439313387385,-0.05928124461389565,-0.8810762532880582,-0.17658062939943103,-0.13742645789475927,0.2582237559667402],[0.4810177161902984,-0.22131670853364613,0.10617553326701226,0.06672867776740117,-0.5801103370474661,-0.012397580456429611,0.3284482205927142,0.12001310192506505,0.28157756096178554,0.2811081104455693,1.14016518545486,0.7199821686355251,1.6432995090871332,0.25783546712623034,0.38471860104899314,-0.3415863035441512,0.700203714913285,0.37291218291335715,0.17740819947278763,0.14771493503003252,0.09213950991889912,0.013507781100659913,0.09971086383199303,-1.1128335814061312,-0.0032662809522308045,0.13913188609390112,-0.3528447985955271,0.047438860146339495,0.1806785716752848,0.28425765772800804,0.030471030732202403,-0.559429108284051,-0.136283209202594,0.48162101785504,0.22196225841910797,-0.0841383426746441,0.5501671912468042,1.131166222941815,0.23336537659502943,0.1602439964919791]]},{"b":[0.9838840143338955,-1.8253566367122365,-0.3232379699431211,-1.5900115943027315,0.7078060507631336,2.0812419199404326,0.7398951281553687,0.3030372137745543,-0.4060408999230005,0.8801599943655778],"w":[[-0.03037202311549129,0.08703009021414813,0.08632160442021895,0.03349677727642703,0.6204315413401997,-0.09210245113870637,-0.14996512021627853,0.45572973908695963,0.6284352600072558,-0.09841172543093753],[0.4656678353074419,0.10906763472898716,0.3310336386450046,0.0903724718069234,-0.05886087369612988,0.500165434125641,-0.11285152182939588,-0.11474485355845898,-0.7218070333165265,-0.1289171521600123],[0.018190263911031034,-0.06021398642895695,0.13339003323388274,0.13769685667753992,-0.09298649197011634,0.2651546509704807,0.00799073127113719,0.46360690741373045,0.3093805482458568,-0.10797450835673765],[1.0200853049171799,-0.020364083065598143,0.017543513371358288,0.27183816233881025,-0.35746967879204894,0.8337381014607022,-0.1365550555395599,0.043388294534673154,-0.3432963950033332,0.04008110034262059],[-0.1511537092416783,0.01168912313537658,-0.029208174004925813,0.31608075531463625,0.17482413632353136,0.0667266271887791,-0.047154612557630864,0.39349570731514094,-0.14057851695251666,0.09009461581949656],[-0.29198098330836203,-0.25183318313592407,0.19764693684223472,0.6918221820163168,0.23906248006727462,-0.1958619623393783,0.14471880617870628,0.04040177027378679,-0.007017306207669563,0.05803227964960773],[-0.1628073512933734,-0.06544889089441157,0.1547967317300462,0.46620946840950017,0.620007923795072,0.23252494617377048,-0.3115187475231447,0.09306067772343617,0.42434091510360183,0.18054594970468893],[0.002611440835397752,-0.207224980050294,0.2260933155381642,0.23769492977473583,0.3753432803004635,-0.08332753635129327,-0.6860761761309884,0.4813252771593523,-0.03606639403232867,-0.5782916562248512],[-0.29112594699065353,-0.6407632583187743,-0.9032448570976168,0.035884313867853936,-0.06545677210107102,-0.07642348435984551,-0.23175713445665533,0.8146230299361787,0.03852032071514892,0.29425404475110245],[0.20233777254996618,0.012368634100555269,0.02344512951042775,-0.8267274738777219,0.2597133701332269,0.13594746786087583,-0.02979620393284529,9.728558151269025E-4,0.6526505830673199,-0.7074713772263608],[1.2407860672518398,0.08859586926163536,0.06855026999786527,0.16405913168252964,0.2074570339018484,0.03609928546019233,0.0990760481420334,0.12901316830919443,-0.0051941547467547955,0.014972710783218624],[-0.38124254148855724,0.2060780677145574,-0.017382450392389656,-0.2214044142923249,0.8536286666483364,0.8361288158735964,-0.968249922458591,-0.10727305677545419,-0.15474739793670328,0.1298347351059219],[-0.17124946258118004,-0.21242119640516932,0.01810422729310086,-0.097783748840931,0.032642369064816074,-0.16069020156829694,0.04895446118521351,-0.9315818882728748,0.09622195481108434,0.9309095886997218],[-0.16542352704068575,-0.16818436842578358,0.07850249232078838,-0.37141914196883846,0.2212805399958609,0.0672209173914012,0.051588630104732226,-0.6035268971762631,-0.08046696669214837,-0.0883364091145025],[-0.8185281794743869,-0.2749844191025921,-0.00862386002968394,-0.14864601257171436,0.03545150820782683,0.19220948156608633,-0.15787743226908618,0.0010968033928056044,0.002145916665385236,0.1708508552719532],[0.2108600140890507,-0.9306223803624718,-0.10961978133273494,-0.33225141014706205,-0.15374864747971262,0.9123053817424723,0.24438134929088587,0.11835759210383989,0.058485702490443145,-0.725554126395989],[0.37836627567989656,-0.8234070422961782,-0.4099467537059143,-0.7337349165932353,0.34294398065273884,-0.15802998179960506,-0.4349601512908726,-0.8774420819994583,0.1521107258323822,-0.184503891445651],[-0.22818641934893585,0.01565939654759084,-0.2736155012360478,-0.2555057271387259,-0.19588441095348252,-0.027244602210546507,-0.10936853504758422,-0.16759635718662147,0.29450862725805516,-0.10931392876521362],[-0.1332661450710772,0.18285719688838825,0.7490664161771355,0.5213962354041964,0.16735293522606073,0.8860285093593637,0.9912150837275026,0.216541005993829,-0.04400389243415683,-0.0885834680931938],[0.024030194932705893,-0.2837131886900165,-0.20125223588767183,0.1542184842829938,-0.1583467260677133,0.16080736690174002,0.07851804517080847,0.1473391242856127,-0.011290006820124,0.5510629484826723],[-1.721663434644154,0.09072240816380966,-0.963005759995917,-0.30029261515200667,0.05887401861212119,0.048173537622573585,-0.36162971660334386,0.2075863237457676,-0.068349498952235,-0.40774244358460626],[-0.07454948964015239,-0.488431979926593,0.3668937614318781,0.18939954682597168,-0.06324639601893559,1.3620929693001993,0.6876565392376851,-0.1924395003037331,0.17546690850993324,0.19800217143413604],[-0.25433092056813145,0.21517010142219245,-0.998515741651198,-0.7801089038357127,0.8716932677611194,-0.1924512918608865,0.29827329893663773,-0.2532924207095294,0.35989190767929374,-0.356793563465998],[0.34625091378421974,0.029348582404238256,-0.5726355967547333,0.6729270594556429,-0.226271638092014,0.6667429755714483,-0.1317775749294875,-0.31573120149926764,0.09752023197767011,0.28333204885799507],[-0.0820856398257386,-0.015800486742947737,0.19685089340125525,-0.901152124364709,0.06125682545076594,0.07810160544243527,0.04971096501710801,0.18924831308910645,0.48009048838760626,0.2710182817367478],[0.0837674716048019,-0.6916002633428671,-0.6020576131292052,-0.13808004252456652,0.1828738239593166,-0.7402093460267137,-0.26449078969069006,-0.11373268387941417,0.19278596624756159,0.018463041614966282],[-0.04689946780978555,0.06693816377164992,-0.010305641497209037,-0.056061882898528766,-0.02147437604516053,0.03254891373820032,0.2721763425330906,-0.2986968739898639,-0.43148264287230825,-0.19083828428306615],[0.08627438830420645,0.1840177864046744,1.1118443276514394,-0.14514515492896338,-0.08775244208989484,0.0478339626113895,-0.448033047192508,-0.31118768163524346,-1.0043401429420433,0.3024285755404511],[0.08056391676228694,0.06193350779761145,0.14991804085605817,0.017633810978851208,0.006539756711320677,-0.6053154266791714,-0.14291359391920458,-0.29326089471212813,0.45354245470619314,0.33567709716085553],[0.12999767360654443,-0.4737111314232838,-0.5256756840591397,-0.05022918141584764,0.18605568420926188,0.031530508315910324,-0.7142868124598036,-0.6845332568079161,0.5101343636525832,0.014160568890323664],[0.04123213769270704,-0.19742461955346652,0.3372852275215732,0.6149935228677026,0.06059582794447198,-0.0838565357891221,0.16486193459302786,0.1810133772346724,0.06820813249848787,-0.6818279118822824],[0.1714471857143649,0.8694186936489217,0.02488551339214842,-1.3924301654348779,0.2620657488361761,-2.2043151402940686,-0.023671731243263505,0.12437679981811979,-0.18315422542157764,0.1641567869066897],[-0.8400485133175839,0.7055599251382216,-0.02307857962243648,-0.01894195334226901,-0.14973039263667465,0.03053615405252115,0.16128084831070605,0.007991668058119341,-0.6741284894049469,0.05348376121586977],[0.040894206478869176,0.029621503972490613,-0.030037061597541978,0.8920946367446692,-0.696565352671843,-0.11000976478933018,-0.026433803546757267,-0.7657677081033654,0.26453969908278824,0.30566338913622637],[-0.0837710949322861,0.6635313096642841,0.6999501689461851,0.022251352681688485,0.8862621425651449,-0.0802334087136973,0.08796397841554784,0.045853343378939426,0.17523148749721848,0.058611557637958715],[-0.054938825500994305,-0.9019504645553553,0.24612148004158016,-0.40831955450609425,0.7919253047564464,0.25598244211732585,0.569300443766465,0.1961008762535603,0.09974530631317341,-0.10039181960078475],[0.06636958083299913,1.2539999234276287,-1.2146573597294434,0.5738276943285006,-0.8463500745857528,-0.162807316301309,-0.3844857922804799,-0.11658522653935212,0.15758137588985138,0.13767561004764112],[0.14962706242131113,0.08044416795227231,0.31393066357248406,-0.7284567032553093,0.06098381761137986,0.2675997170623744,-0.1769895638746338,0.15868847302664277,0.29745923785453215,-0.04642021981621665],[-0.013305218333942456,0.02984545367706272,-0.08244194158811712,-0.13086267562483847,-0.41818527760698837,0.04902590687744289,-0.04493072886491104,0.16917874844842667,2.3481014476073034E-5,0.3440160711428706],[0.014828568888818996,-0.14821042779377397,-0.017665216612543024,0.5892565795186135,0.18605676740219682,-0.29978790066579664,-0.09002285361799124,0.06520664131210589,-0.36403590278091646,0.012745725207452104]]},{"b":[-0.2074149835624025,-0.9794103153105899],"w":[[-0.7300683216358811,0.028169682418092853],[-0.10026692668857662,0.03830605238901087],[-0.7535493784087128,0.07873491356636005],[0.4964572330337949,0.2900365044057462],[0.012532578606121864,-0.25408412096340827],[0.3619895842409241,-0.15611426875020618],[0.5481152938782603,0.68157033086027],[-0.5364815251268,1.4417086027578412],[0.8910208536891886,0.4449677048986732],[-0.07424338350971049,0.17232962645496858]]}],"dimensions":[9,20,40,10,2]}
