{"layers":[7,20,2],"activations":["relu","hypertan"],"neurons":[{"b":[-1.0727733475752588,1.051058932720387,-0.1919183403941923,-0.3171202131442198,-0.7532293171930549,-0.13536093450700043,-1.5600317417677403,0.7400069450263654,-0.5290283673291158,-1.3034691581751938,-1.0489730045660508,-0.5312410165542288,-1.3863818027579249,0.19841472274308572,-0.36715912756082353,0.6201735783722965,-0.03497233967391583,-2.189938083680276,1.0764886377506668,1.237271903383965],"w":[[0.29774140769214824,-0.2870459783599174,-0.05837002650955068,-0.44741996854435523,0.020300448461661798,0.6810696056817023,0.3506780512792769,0.6153939021267457,-0.42889366141754054,0.01439750488896564,-0.34524969822092394,-0.08154102866525816,0.0021082487049900117,-0.14026036740014075,-0.5014270447583241,-0.02454052030926838,0.6261824011502125,-0.43555878882524784,0.39155564827407613,-0.26640551466538476],[0.14362295221004576,-0.5538130245357133,0.17589882831486492,-0.847380686646185,0.3542586861240361,-0.355480131171433,0.3789187091122007,0.06023358789296642,-0.4544985220227737,0.598060692653306,0.20298408462411965,-0.2013545436703813,0.020450163093687624,-0.24549660705523196,-0.10795777289666023,0.25274452736352726,0.6070782419554578,0.032014595510519654,0.2918299545438372,0.16174382008312715],[0.6974246525753603,-0.29161391743577747,-0.15250488069934803,-0.031136130962488996,-0.4732805676960139,-0.3525701561232145,-0.12251635355950272,0.28066175895510104,-0.13709119662792765,-0.1749398726173823,0.08571330902811905,-0.5647488251942328,-0.13677454670707645,0.20083864797224585,0.0611578189439418,1.0524645921633153,-0.4198090330004999,0.38930158174304635,-0.28248776331711445,0.22818694050672217],[-0.4507894293500916,0.32044609576373567,0.30175677065141177,0.49046475174317683,1.2387844375061763,-0.017703823808680224,-0.34718790330835225,-0.0682069847386733,0.023679436817656108,0.2354312321323613,0.6242866579136426,0.34443084632208154,-0.21279591229248174,0.7009144893545246,0.7808849415324288,0.0389335070206798,0.5362381064330951,0.9546666650147204,0.3517635046719027,-0.13315338277927102],[-0.3435665223388407,0.323678293571929,0.20337685298539418,-0.277446185890392,0.4173804936186625,0.25071223722970665,-0.3003422771574735,0.0700199673830816,-0.1558906477491929,0.24286543868224006,-0.027766126585363645,-0.34361865700833166,0.4842802370217169,0.778497049775867,0.34174028372481063,-0.41415724843834556,0.2739730698973119,0.4420601685364704,-0.3109069285326232,-0.18528351601584592],[0.19837918759411052,-0.03208215930862392,0.10098575295206084,0.40792132829330013,-0.06466921974088147,-0.2474327326879962,-0.41366430823533956,-0.7342013537995563,0.11880300507448086,-0.03317596349148507,0.5654269355222595,-0.152719265923435,0.018137996409666884,0.35823506761978313,0.38961003782844233,-0.17800264843734967,-0.3892621816847039,-0.01127346712695272,-0.23634401447924672,0.11286413453414451],[0.10767922485826041,-0.0200525094190959,0.24240007825926735,-0.0961313261078924,-0.3484270958740774,0.1474340398763082,0.507249767727721,-0.27482519471456685,0.056588965080406596,0.2104308453246428,-0.015664355746257505,0.13159816777953415,-0.30502587939001,-0.09678986439885699,-0.4590162997603662,-0.6518598128154273,0.12021209791771247,-0.15813836315309138,0.44641074721900686,-0.4319627057527367]]},{"b":[-0.3979217054133885,-1.7460744765257858],"w":[[-0.019550414525981167,-0.1264956845013347],[0.04068923762426444,0.02234160809295554],[0.1592426306858884,-0.15333626294373956],[0.3350607698548526,-0.01712260675225594],[-0.16044363507609583,0.28121151356530183],[0.17687922142328602,-0.10212139706840603],[-0.008922146901548243,-0.24597736755133007],[0.14369730300496694,0.20817709730371517],[-0.2558020781914253,-0.022055159245715],[0.4384444056118976,0.2999363078002334],[0.10622388999258213,-0.06278686290423255],[0.2313742358900639,0.31045235482393224],[0.0974047138318939,-0.13932911706910797],[0.29088880974714576,0.3467737995573853],[0.3741897895423108,0.3384926310660319],[-0.024292979871173362,0.36172386180710114],[-0.16288205734394243,0.005472993073818877],[-0.18720364296899494,-0.09963999494898534],[-0.3420860783803758,-0.05419499720532771],[0.4619524926454507,-0.1115799377121982]]}]}
