{"dimensions":[7,20,2],"activations":["relu","hypertan"],"layers":[{"b":[0.37496180523934564,1.1641913049187682,-0.732791813971961,-0.638780757687561,2.111733805214702,0.0033129920317823552,0.6333510715941595,-0.6887538316980282,-2.6387424526376075,-0.012694663703507353,0.14700406039293198,0.31149936950640916,-0.6195658318667823,1.5710791752800304,1.6678313267710465,0.7999372296115993,0.668873144345188,1.3554533597847416,0.8907693459921863,0.16387719797957342],"w":[[-0.06007867870780642,0.1786053602582456,0.4638016718523814,-0.42473537031764924,-0.6805514263555461,0.17158751909023912,0.5610925469131566,-0.2261200798179679,0.6882880453796995,0.3152871214190785,0.8862770324131923,0.029774079233558463,-0.11810571262489244,0.34508516632433445,0.37535565696379997,0.5238480140397455,0.6141629710541148,0.5400879342465752,0.31947309046429223,-0.29283151767490073],[0.6516883723828737,0.0021087804508600288,0.3476680320495323,-0.3463893523078844,0.38416965301054745,0.7557230063967,-0.30165102568060764,1.0593599322466654,0.038960418801213,-0.7736311126421351,-0.3914896077635964,-0.4357508819438838,-0.40414263887089835,0.08498442747224262,-0.12716031452751905,-0.1630578888479644,-0.36378673494417296,-0.17133469091923556,-0.14532581655817453,0.3727049370981657],[0.14510018253214946,-0.037106967298322864,-0.28217072755629374,-0.24346102956742063,0.4324009718045188,-0.5186183549342799,0.21235907250589373,0.2332607341359912,0.43571513200858275,0.04873233185144206,0.14468982283921913,-0.12695104196476,0.0034235236298378584,-0.702263269517722,-1.005544678381137,0.20380135990135254,-0.08987285571555778,-0.13547599793802442,0.030159061820005287,-0.961060837036916],[0.3727076373722668,-0.6598007020129291,-0.027593991283563334,-0.3634910479446243,0.8050073414254821,-0.26705229348661697,0.3770140942007546,0.26386695526676945,0.24980765984987588,0.6274998195987114,-0.23613694912991046,0.15091939084743652,-0.6788284706033465,-0.08197114089326459,0.13225120627839498,-0.22886400638336787,0.14685802645873214,0.6188588056072291,-0.22416297678219094,-0.1686202329640772],[0.45226605798654645,0.5406177040568161,0.022406055749570237,-0.364567397483235,-0.6211637384002813,-0.5919068801292451,-0.08409754009540918,0.12751418925428112,-0.3074120514924886,0.596753104314053,0.08865751939403847,0.7076605096460126,0.10747591012322402,-0.6191238538238969,0.1512118172951748,0.5518721786279408,-0.19550690109580132,-0.608084763231112,0.22502854356775243,0.24166643636647223],[0.6191579383601905,-0.20858104192419127,-0.22147382203302038,0.22834246566471864,-0.4182470512584639,0.3356344968275462,-0.08782597153601814,-0.002899503301347929,0.06992115083699932,-1.0592393744993647,0.5532312711145212,-0.2259966947491336,0.132708774953055,0.09938445295902967,-0.7927488756943564,-0.21396503875807776,0.12941875694054636,-0.16502153847342654,0.2941685190283872,-0.15819689331669246],[-0.37988611830350777,-0.2394935139639015,0.641241255614749,0.26916626502993074,0.15383783603931053,0.11234705952079231,0.09464244666388975,-0.6364685658608856,-0.23778499696311903,-0.06742028134017021,-0.06234594123821312,-0.18067386972820912,0.4403299108728737,0.021147717198174754,-0.33255056959794727,-0.5854087851659155,-0.366294628389093,-0.39448339844231284,-0.23677301575256773,-0.155721492238996]]},{"b":[0.4986814473200019,-1.1493779681020053],"w":[[0.23964799928190184,-1.0208031737024612],[0.30003070460986625,-0.11144780221774007],[0.19393299325347285,-0.13826589366844724],[-0.024559086429182267,0.03802071009642702],[0.07101457151560148,-0.10534575115928986],[-0.2690232624187604,-0.170246345428975],[0.005853485724413117,0.10892687033822979],[-0.14566747701301855,0.14005842804410237],[-0.12857233270452725,-0.33757937336055127],[-0.03984930174440484,1.925414742910542],[-0.45549567690611475,-0.15502741530411712],[-0.17512549008544143,0.5143171958505443],[-0.5350277706798009,-0.5075431389688851],[-0.6709339493203037,-0.016862616321450075],[-0.006620312706332715,0.16348170005719775],[-0.17933212074785138,0.07558118064595631],[-0.443204929467313,0.22292058256548056],[0.10524577055474547,0.17546522755781108],[0.36972202341705157,0.16103694227218102],[-0.60936479879162,-0.2270603202721501]]}]}
