{"dimensions":[7,20,2],"activations":["relu","hypertan"],"layers":[{"b":[-1.5367918342610722,-0.0675887293301351,-0.06449511204625306,0.9591263101824822,-0.23742020065255529,-0.3149243778396659,0.03236135368289833,0.7406043252290828,1.5039146980522018,-0.5684389742582613,-0.6636194468984185,1.2383559302778886,0.960852582813339,-0.18516931735433156,0.38510019700773046,-0.008454583377060731,1.0996644717223276,1.031681456555491,-2.025603783445889,-0.11278885558995674],"w":[[-0.448086700695846,-0.05055161333704629,0.059425322507339076,-0.33606905269391424,0.12206659786820258,-0.527527383504337,0.19859143035331206,1.0129975836664706,0.16086001396970376,-0.4287688135909479,0.3295405874826287,0.07798099744920697,0.9021060496242106,0.5667012239249534,0.1592471865633192,0.10366212242146336,-0.0345173468959209,-0.26499223856988774,0.4681648348660214,-0.02307630268809758],[-0.4328383314961737,-0.7059303435399411,0.18465649004064622,-0.23477732628407758,-0.5419219008968075,-0.1816760175960427,-0.3575546842782791,0.011111813188697566,-0.6646773452866055,-0.8991367755917092,-0.5725132486970888,0.20550245563192124,-0.3846780762394661,0.015029849850620175,-0.49851338452988836,0.5153420411125029,-0.7132149648761898,-0.04156571098998177,0.0017165454600205176,0.7195240825786124],[-0.5173830354390381,0.31452604908598947,0.3051533059679224,-0.16571848139945922,-0.3483866121058666,-0.05017752315557019,0.4271600863990916,-0.03566462451271869,0.21470204979331187,-0.568311831824005,0.43479228763968014,-0.41168755985372485,0.19276491708526605,-0.31824831238696366,-0.08512044437627807,-0.1825614617358549,-0.27840082240599956,-0.5544417189004033,0.15555813782786254,-0.11536491686774418],[0.10779435812819364,1.2332979704026092,-0.32763789164160523,0.3789942580616935,-0.29116766878397843,-0.10780453937393661,-0.5970214540765602,-0.21936664843515508,0.04048737669924167,0.2771403048135146,-0.3219735036536912,-0.6657815036796126,-0.13649872255006015,-0.11263771503886034,0.7682354563935894,0.9625853965892992,0.28197560567039026,0.6323669359022562,0.10956466776672225,-0.034252353969961236],[0.47303190672568873,0.41596459135958275,-0.14834066017619027,-0.4884417410718145,0.27956160323775736,0.24481645908101118,-0.5439007674294142,0.08521988772722731,-0.5529212961684201,0.0566737589577542,0.42884833896387,0.08854116759632454,-0.22377387009266395,-0.24600286081736397,0.08868800654473835,0.27474375985740407,0.44343542685921183,-0.9623055888096163,-0.42028488971414607,0.43466230730327465],[-0.07433198926040378,-0.1920576898612922,0.0896706935225589,0.1683213467867932,0.5406063876853768,-0.5051368005402886,0.14938952337348546,0.30584483865439754,0.0529147329715451,-0.10122594989634431,-0.3825376672490827,-0.0730933724411467,0.26257529789779455,0.49149873612986417,0.2829760212492037,0.058153447303081085,-0.8506906398670243,-0.4515849083419712,0.40930967029380927,-0.013167947208756631],[-0.11605316863068842,0.31570924273487083,0.5537373417018104,-0.5625777313024558,-0.510942854143176,-0.017937866171692393,0.28488668673391776,0.06816163304420808,0.9740333817082648,0.23707432233459677,0.7554628616645884,0.1151390696081198,-0.4873312430109965,-0.4098606120043392,0.04744813628428296,-0.0642762494480526,-0.12170930082167526,-0.08421308603691945,-0.3135156621885644,-0.18142366405548363]]},{"b":[0.7371644409743016,-0.7596022316377025],"w":[[0.3636043298879251,-0.06302966673730383],[-0.25914991462509324,1.0793917982673022],[-0.031241675692580358,-0.21226362130546828],[0.08538318010888106,-0.2088662824948678],[-0.21961547081234847,-0.34978225968558047],[0.025955689868522806,-0.12809611700756168],[0.32881315311026954,-0.07989530550978188],[-0.2539311803449139,0.11496992174700313],[-0.031170407357018242,0.28029617204682566],[-0.5115824030492067,0.11104593015093062],[-0.21755702144739508,0.24825824009196693],[-0.3678581479701391,-0.10199493516193706],[0.1000005433147813,0.02350048535859501],[0.21928125247995958,-0.007934200270610797],[0.2654214835470997,0.2767083779739516],[0.0598624861499369,-0.03445413252052946],[-0.0988327057082294,0.42645982046330927],[-0.1350425561789948,-0.006146290652916815],[-0.27687034221957363,0.2212998484645113],[-0.020343919618258557,-0.1503202764074592]]}]}
