{"activations":["relu","relu","relu","hypertan"],"layers":[{"b":[-1.1752029715929868,1.1453998170749267,-0.8999487156061085,2.4400422021532053,2.0207138090323298,0.9721693777394714,-0.5398802090741175,0.8825723194135322,0.2452305618348614,1.1188669528720951,0.22363965637097996,1.1628736612200907,0.5540968144408456,0.05596564697392603,1.0764464092087755,0.37044994737551523,2.2113341682221783,-0.7975716639275323,0.9191901686817554,-0.8326199544314209],"w":[[0.21335550668983944,1.283734252029882,-0.6256064888532759,-0.42426307167539345,0.6505183474687787,-0.6553736930467806,0.5063012746275952,-0.7554488619936066,0.3906719056324007,-0.021112188747355598,0.27194704767925115,0.14881886471767003,0.13338116738451672,0.2992615125157318,0.5303009128494521,-0.3426101180709132,-0.029082245452238545,0.10194709278965891,0.42986995409345274,-0.6973771917442916],[-0.05558373279126583,1.66167099431837,0.547607131345295,0.190414228867115,-1.1538928452441026,0.19379955961463582,0.47992816308025943,0.4093466741970915,0.6663005339329109,1.0851376192626363,-0.10456684429251042,0.976158445053379,-0.39157456369584975,-1.05391291141563,-0.4170670985149125,0.702157990640554,-0.5051956441624232,0.3959862759926934,-0.2567499878846012,0.33487301432975014],[-0.019523693289215095,0.6460920018886381,0.6239137274652009,-0.06930047045319093,-0.4372897727689825,0.4813747323340008,-0.09409596854351099,0.2989342369777492,-0.18160008030884783,-0.1613884825046331,0.34917223474437104,0.008887135877407283,-0.39215238831974225,0.27919917069502476,-1.0886112550690044,-0.11900576223933673,0.6336571352587619,-0.8036705169771949,-0.21154896247974478,-0.19608920243262765],[0.11763028944696216,0.15927270573732552,-0.30831444273798997,-0.03569700405371909,0.038814320254038505,0.41661072793664666,-0.22754734698335546,0.1945330521432126,-0.529443871469375,0.0941723167904785,0.0947077690005916,-0.6300595304270454,-2.4225814031917716,-0.10990146340006246,0.12339681616322958,0.06757787021962015,-0.34671564263721416,0.24949604848718343,0.0796309602021193,-0.6859651378147977],[-0.4067023023798093,0.2961114294155637,0.2763955226077676,0.681652463486259,-0.03634410038062574,-0.8756604688689481,-0.9601193930591594,-0.38598122726940665,0.015451125401496513,-0.1613132387611579,-0.1974521697443239,-0.22734657316825868,-0.07181293736152522,1.11655648305411,-0.3258000214885611,0.029866733252854126,0.31738482873171403,-0.30994619173159926,0.12378540094802505,-1.6348551967874838],[-0.697216784213361,0.13703448159621937,0.21101693843337724,0.3135660638657535,0.598590747252025,-0.16894304038646935,0.20919315516503229,0.9472315363500283,1.131885992437618,0.5839186461701561,0.6454514133827998,-0.03823786416436353,0.3003591529386353,-0.8827933869411101,0.345066400418493,-0.08477849628952606,-0.10997225554501688,0.15341975129851793,0.5070941957431747,-0.5198259458138861],[-0.5108199653534808,-0.11505880680150475,-0.19253601383833382,0.22899354754386064,0.015084661317138523,0.18206765882010437,-0.16162448350414854,-0.0721966545044905,0.25265108578818274,0.22228447112557187,0.5410096954923916,-1.378481480111883,-0.9338403660793653,-0.43761034530902854,-0.3114958589536745,-0.08736141149856792,0.453009671268091,0.3680972756691178,-0.5857543238109342,0.24417958370469675],[-1.163340738643105,-0.618212268291888,-0.21587326223527695,0.0655020288822416,0.29453113997142016,-0.1409002438033593,-0.05456414423004184,0.5685012389025688,0.4523916160011576,0.14428151707721315,-0.6785345176103776,0.06954950270673849,0.3483175372107107,-0.14459411097258057,0.06141389046229023,-0.6079697031148685,-0.9671183472976186,0.3498400830745989,-0.4807736030001866,-0.063278047186542],[-0.7444579861703523,-0.014855703850649299,-0.3492735277092494,0.2625638526698399,-0.1094353256156414,0.25893732765314215,0.47091214948914367,-1.8574728431210912,1.3254292080357286,-0.6635632770136433,0.06098925833379136,0.38132414986813923,-0.13725513879624207,-1.0723338819951853,0.05033496357277273,-0.17656502049970738,-0.3478905151910728,-0.21512212050089774,-0.07609708970535256,0.20356183030389877]]},{"b":[1.487085662959334,1.368254332248769,1.3725714554647994,-1.016922012268568,0.6956787618989353,-0.569982590125685,1.8503365635588365,0.06398729200750684,-0.26973498011212443,0.5670243892878246,0.12281861514315592,-0.10427929036602074,-1.4955647066794941,0.039226656555843106,-0.19992130260784324,-0.39484816512963933,-1.6328828551477197,-1.2437971630633828,1.3269144355527902,-1.0851090366801928,1.0875468823404955,1.3776787447611896,1.316710593792862,0.2271635408337346,-0.7034222376045103,-0.3085063015982646,0.3210548260111921,1.4231489408354616,0.3393276221411627,0.24185404218828188,1.0398728540782542,-0.4129231980763359,0.24104456039681885,1.1758138921011105,0.16874664668375106,1.3870575915731025,-1.4698307353942992,1.3891131794730387,0.8132589901819766,-0.9790841502574438],"w":[[0.003559907206321736,-0.7741644158167459,0.41566345385717784,-0.2673888386428451,-0.46867473491015316,-0.04890853208176105,0.11151266102368264,0.25538999690685654,0.3793642690873178,0.060201075137351436,-0.20965503925867013,-0.09126155170378367,-0.4024315069320227,0.2591378415390071,0.0987055582760477,0.4712550161652352,-0.5098471128719037,-0.20415144890525364,0.09289547082544514,1.1161211765029353,0.3815003216063293,-0.09199350292978316,-0.22429582090383482,0.004205716200827865,0.6587703765412452,-0.3775152064490551,0.2193662560337622,-0.16716482255655638,-0.1637135989577298,-0.30637664423427297,0.6921480577053785,-0.23641736035841066,0.17719579669300028,0.41600278323525225,-0.7526845818646524,-0.023600124346736927,0.4453510653414735,0.08193564681528791,1.0846734643990765,-0.18927630896152015],[-0.2045734576843434,0.6568871270763199,0.11072514609484749,-0.8814648724338314,-0.0909220482539178,0.26387393203807114,0.15659941124412938,0.5336039862537488,0.07420898088306165,-0.008606944930387243,0.6783332177062563,-0.18760955440989902,0.15227152308493613,0.19191021953943305,-0.2914725838754624,-0.612116478240403,-0.006005725680839636,0.35107571671073695,0.00839151270165953,-0.1630226541741459,-0.2139791977604968,0.2295256267890725,0.7177244117893732,-0.07285539630318508,-0.228004666523915,-0.23131088197804994,0.15159818418967944,0.49028755593938805,-0.24267917341067258,-1.3298221226583173,0.023525987339729833,0.2873004781008311,0.18945774699294732,-2.079056370298926,-0.4627676459661121,0.8422075062734268,0.22178109620461675,0.17257199295647482,-1.6032810450691048,1.5947048082851292],[0.20588178299906115,-0.023203876513623416,0.15314234269421848,-0.6808490277259586,0.43640711246077624,-0.033779662481126495,-0.6337187978046657,0.43134589964428355,0.09444214713310613,0.21028054058038553,0.11871602077972469,-0.2345588148128946,-0.23263870024816316,0.7062342875090395,-0.9316292426428532,1.0345954941086455,0.33719988316985927,-0.2247245623096914,-0.7803313737637277,0.33280489206702285,-1.2139420247081774,0.08146974638831404,-0.01352397680712535,0.021632494565806668,0.21698542100722748,0.4280979130750781,-0.3756640336700084,0.9103329101060756,-0.3646859676338898,1.279672668263056,-0.4427842567293522,0.7523321322169911,-0.03163639391259303,0.47008917114087456,0.5565784430494103,0.10651663713272949,1.591746243101428,-0.3407708520345496,-0.08758081522731181,0.4459556223027848],[-0.845875268213396,0.12335842773136921,0.271734970533416,0.10456355081757697,0.25327061691938957,-0.008513942074764644,-0.4402568171158282,0.05146710752677692,0.5872074649602066,0.1114905315169661,0.1739920195376489,1.0847008637804731,-0.08362252896223497,-0.5163581329722249,-0.0036124926514104786,1.2636517456314835,-0.5556034105548938,-0.1133142148979676,0.09059855790691541,0.549934457591585,-0.16786830345230042,-0.2556262783452158,-0.20414368946809353,0.1404232006382619,0.04315993187028295,-0.2212553459532732,-0.3104133388903642,-0.12616693525969455,-0.3398731231383155,-0.027038835959644333,0.0738838516595488,-0.23796613935474922,-0.13650521374599545,-0.0872352774914068,-0.19046276120305172,-0.19834464548238523,0.6062323408607734,0.19318673633424174,-0.432316919396949,-0.6808198112446524],[0.13303597827202426,-0.16880340631912613,0.23281965572159796,0.08914870679364754,0.6583466468135897,0.20796498502705243,0.1430642508162607,-0.003308682728995236,-0.06081596795080066,-0.16001173879232644,0.07302346363853597,1.3173705076040203,-0.10181230199454001,-0.21037875148476054,0.029925038248790208,-0.7594931362230394,-0.1318259706013061,0.5872838463797756,-1.0043198225678989,-1.5132931721158525,-0.1803251844552157,-0.02105968562014372,-0.39451366960060247,0.2497933669102892,0.13162211503772522,0.2646372365474023,-0.1496175309079434,-0.002514181743005439,-0.15872053736141714,-0.16176496739106425,0.8314959169139255,-0.08608548286094159,0.15297666312510208,0.0028097263487316324,-0.49062449150674686,-0.2980266097868449,-0.738560131630475,1.210146020483586,-0.04961247653292712,-0.1111012067736454],[0.09131547531248325,0.10535854915904656,0.024337303025710362,-0.22734091690062472,0.008433397418437464,0.17691051826238774,-0.4882362146474354,-0.31392195647245014,-1.016820796810757,-0.7715573273788505,0.48636411349494957,0.5905491413238722,-0.043190190272658135,0.2661145318871412,-0.07269321425663251,-0.37426338973628215,0.2795408001382736,0.6939151300489119,-0.10871472923258786,0.1318053569880221,1.6344714557940256,0.3454621235407659,0.2911737070264402,0.25949416875173614,-0.0783613329869993,0.49747085063909513,-0.055670926937298915,0.2474581746157884,0.24351041820094355,-0.6783734883353293,-0.10906754132813172,-0.29544127968525663,-0.17997979748627377,-0.7220223101415162,0.06180189161882987,-1.0222570886865214,-0.3424849502060321,-0.6928010612883109,-0.2617652808836529,-0.9439920442844477],[1.116726251485692,-0.3397137042144283,-0.44166512724529366,-0.4352102476413958,-1.5189627480363719,0.04504196533510275,-0.11831094910993456,0.39383203099168484,0.20732199566559062,0.35819836114121506,-0.3460705114329873,-0.27105880749208794,-0.029813121962377263,0.3347169611023654,0.14552568987569348,0.2642040550345689,0.016416290581457757,-0.07433786782668106,0.09854901255052291,-0.024558372160125623,-0.01594999683454703,0.135009044637952,-0.3469311661014732,0.4966590254362129,0.40732594276191497,0.847992501980478,0.44835946288511475,-0.16390527669036986,-0.3621108945525461,-1.0603999900686252,-0.41140267658568286,-0.26713898859690755,-0.21790692364628364,0.11820397943411809,0.6106902464292658,-0.06960710706735694,0.03214358964947013,-0.4626029683892148,0.21657125373567812,0.2633915343108031],[0.07133490966363934,0.24322541563170025,-0.19179259575239113,-0.009815058835893401,0.3539724291943991,1.1565196665119974,0.038298183304518556,-1.2280194193521785,0.013064575420357938,0.7891922195055606,0.48434817142591646,-0.28058496689736945,0.21595516767083708,0.9302026697528731,-1.0289106638314167,0.08724752252558354,0.6927176120160813,0.5411281213267158,0.3219963095791964,0.22000572223394713,0.19884417583090735,0.4600972538921316,0.36777110828424225,-0.7711154568643688,0.03564084414264112,0.18195242738284928,0.33893028045768725,0.06394903087699753,0.10517373920525167,-1.1008414395833035,0.10355697753493986,0.19144458345999954,-0.8959605280410833,-0.17500075380980784,-0.03845288838064743,-0.05347888375275082,-0.5666926180970983,0.5741295935832079,-0.21981980779610216,-0.7603024078026929],[0.2737770372728479,-1.426584002863834,0.153240004126262,0.16951241736746084,0.8234373645286173,0.12701517922188138,-0.030991038536839044,-1.2631745255962707,-0.29551804614436594,-0.24052774778114228,1.05263413896267,-0.7373929585468143,-0.14083796429916437,0.5484355143788497,-0.46739000954147303,-0.09057924831589889,-0.6227817465788499,-0.034196748340271886,-0.12781622771759013,0.16839404780409148,1.1205167925207284,0.024181242111824347,-0.4178152812605573,0.9205383555963481,-0.4700604273353768,-0.3972653938267496,-0.21111496627961465,0.08209431619681605,-0.10647427713078517,-0.4475797589994649,-0.01408983353061899,0.7460520683454297,-0.12021985354789652,0.012559034530008341,-0.44047322580189074,-0.2896436259974659,0.5864588302694942,-0.24019119308976,-0.20731452143185974,-0.20203633454874356],[-0.5925835785076384,-0.1521364954265501,1.0699552423881435,-0.09588577599991277,0.17419190200931065,-0.20895319995896341,-0.8943264111101068,-0.14432972828157128,-0.07330350625775783,-0.1437982134544711,0.14847694217064114,0.05184499479723951,0.05869944802213724,0.08443264305527776,1.1715729371123786,-0.229486649855576,-0.7923886482791821,-0.13771350543864988,-0.029570057011098907,0.8432221979967489,0.041381938272397424,-0.34881994350696366,-0.7253001302784047,0.05207839489279046,0.33856175089391083,0.18020227553578358,-0.33390730604220314,-0.8871760001036737,0.10031340248645199,0.055603834087703974,-0.21168017127537636,1.7068238446229622,0.324704035902491,0.1551360416869082,-0.10921263940507635,0.5851806128400545,0.02068211602273645,-0.3429689992435015,-0.01865703236754378,0.903714124148906],[-0.38473515068929964,-0.1673005937966842,0.28546555933719636,-0.44497569186499164,-0.10941006918521487,-0.4033832121084001,-0.029927897171382237,-0.30271221248938723,0.9887963355935739,0.04382057560482901,0.7453453101950009,0.618187784777047,0.20832298843358404,0.20401568341031004,-1.520168748676389,0.060793972177979064,-0.21589977516597422,-0.14652178685455067,-0.5110540782457543,-0.025282449417600886,-0.23000923621604122,-0.8019184259375393,0.1605867322856585,8.271186844809597E-4,0.312319808895434,0.08786985594622322,-0.10353959579129249,1.031077308799807,0.04731206474625295,0.07027205718956041,-1.0554099608397807,0.8286489056536401,-0.05286569717411387,0.4638955686484417,0.15768281208532925,0.11812313873602838,0.06275309485709069,-0.17140977666570376,1.0212429593793684,0.518314765310816],[-0.6076563943573672,-0.45828889369455933,-0.3504050705457724,-1.0036576187626187,-0.23737386505060684,0.04975067823967616,-0.12073870464222666,0.13351774188465362,0.1778883296120948,-0.9298245528756446,0.03141666665582718,0.28138045308745535,-0.29161894221514123,-0.9543420656823336,-0.15401670392658603,0.5368281956545148,0.2498388056675866,0.31885599804442205,0.11080738116079884,-0.6680928446613084,0.12386772067045174,-0.9606970369276332,0.025342260677032845,-1.0354162598240668,-0.055484381873693596,-0.32096761269017826,-0.2904030392847983,0.21556831574723492,-0.4161405900289039,-0.0643469907365409,-0.3222811535857751,0.039827053135466806,0.12578713502988387,-0.4137900479737655,0.7793190432088526,0.11976435036799116,-0.08147186247428702,0.227354549474357,0.7057944608597537,1.3406608604220556],[0.6231468141022967,-0.03315971205513711,-0.22907063439315872,-1.3184274468229296,-0.026021643358979434,-0.7171931257233449,0.22901303020614666,-0.930627527581568,0.12654845806445786,-0.09388660449150257,0.19817860370400936,0.006195595531617773,-0.4314379028479579,0.8769832653084646,0.2117654162713173,-0.199896213821097,0.11338066703499947,0.20227865598050926,-0.3023364656794851,-0.15913207728090856,-0.564894209804297,0.18493478489547316,-0.7173130687603059,0.1546276283008733,-0.28372821947374244,-0.3800998091341938,0.15320473330199377,0.3296601090773447,0.6216236495375965,-0.10736197090014797,-0.0506255831209109,0.05544975710310231,0.14031830522897185,-0.9689613977384053,0.06605387729269065,-0.06366426466849479,0.26965716848734483,1.290355369179668,0.6739540742793295,0.060344577164023624],[0.05999355680070242,-1.5219222165541078,-0.2218559986405562,-0.026051772801179825,0.35982382850105205,0.25342450114291265,-0.1570012605233131,0.2095062448056221,-0.02065296074725806,0.11960774227604809,0.12975863570348115,-0.5235598829602328,-0.19374377207984322,0.17699334460069288,0.12333943463380395,-0.39428130942709444,-0.24485878139501455,-0.010604729662261158,-0.5154329958705182,-0.22417742853357167,-0.02703881727256732,-0.11303758613677051,0.2292417302215992,-0.23625341224111554,1.412787359812235,0.2513582992601482,0.05442616898044913,-0.3573833586094986,0.3936622671522533,0.10638252411243032,0.5622805861065128,-1.9887877046891935,-0.15951861371951823,0.04853227189175942,1.0315924294502756,-0.15842902174323742,0.11703412785198837,0.2776389255215065,0.48841178167811694,0.10626319504946134],[0.5593513517429893,-0.23697331320383075,-0.008563534377236356,-0.15665030836309518,0.42146915537466995,-1.49351986077947,-0.01592270482093894,0.3040429702682567,-0.12285526439761313,0.5263998819577893,-0.21164267332715286,-0.18296477976246198,0.08169581012268279,0.17198227674428038,-0.16619524972553817,0.5423338137016849,-0.9451178491955212,-0.04101710350167632,-0.3286769449448588,0.9752858660104755,0.4382613429340646,-1.1296879689389572,-0.11015985236271264,0.28049141087731255,-0.1777121226220453,-0.1783763909671806,-0.054023399591777016,0.37924425966153824,-0.8124775269250055,0.048073105255248924,-0.044449674079381,0.10103945898638206,0.07256939929082659,-0.6795634130815736,-0.516022606737207,0.21399444751688548,0.13870285787062833,-0.6701677705855467,0.6337141126075319,0.15754033703325265],[-0.048807381078820745,0.2082201935331837,0.20775242742015226,-0.04355603327108939,-0.27183702678495064,-9.850322586376018E-4,0.4185562497740535,0.015391100258699058,-0.2727164065913415,0.17476611536649977,-0.23144100738806733,0.054752853561713194,-0.6995497716752844,-0.17954792059108957,-0.6007486516016858,0.7192325046642593,0.2678644468501702,-1.2568727859238178,-0.7764546596605344,-0.09554016483733663,-0.14121104803610993,0.13380724657268578,1.0546335833299048,0.02550496487609135,0.8505850902815097,0.13528118303920642,-0.9218730050499605,0.5722181487912614,-0.13321323583429528,-0.42359764413298906,-0.21080239393221759,0.17528191363546755,-0.2754953656849124,-0.12824877129954743,0.10806739986022117,-0.36426589641345364,0.03261575132630189,-0.25488681173264766,-0.6314504233085046,0.9563230164834877],[0.453851507009925,0.06649694680758378,0.07244212335921604,-0.12281532660480683,0.2041508579616255,0.026007433954803538,0.3018901877677846,-0.04107829132007377,0.40324666686184263,1.1471227158655994,0.6781380333621698,0.25447338219789967,0.05627495520409315,-0.548858192083783,0.09997904253395783,-0.378027349651069,1.0347784552697028,0.2394195247113355,0.1488734400796482,-0.6741957104452332,-0.4533497614704428,0.1590820580951105,-0.23082955761731833,-0.6089084993538982,0.828857089183753,0.0098604779430719,0.12436535247792586,-0.1488195814481113,0.0696439538247432,0.33915181142821405,0.12536642122150862,-0.11670545625780149,0.5136890433681838,0.19646302878151198,1.0826299319669814,-0.33626269694997857,-0.18424485763026952,-0.5218527004938671,-0.09876519903051438,-0.07496471910921103],[-0.6693214246636319,-0.05082371329560864,-0.12437937753091866,0.4443326182135903,1.0197813424630469,-0.6936991303569172,-0.16061499002286914,-0.21389707404340605,0.3265448542358676,-0.4130670839326108,-0.16968017015138917,-0.3244486888505631,0.771078121931229,-1.152178473815255,0.4201066117001428,0.061517309681558434,-0.18295209785264843,-0.10400620216296141,-0.11587530681861664,0.5619511709108032,-0.30209318482998615,-0.2152677424120394,-0.04258973115126221,0.30722386688477216,1.4292488748401349,-0.318011903123353,0.16310334855121653,-1.140207804443249,-0.11572643374820091,0.2519732435407041,0.6229303305669835,0.2962150516992064,1.0351066078209643,-0.49271250063933014,-0.4164061743385275,0.08240534351582061,0.1753561905172005,0.14139665973736842,0.1836920406755649,-0.7025091361208788],[-0.4320803627729045,0.3569702363274837,-0.40277045885118956,0.3841496607064479,-0.04117406187012022,-0.12444109573871345,-0.39203530765817884,-0.7931699666387426,0.3711068711762299,0.9723544243019302,0.11968093061906049,0.29305533420647,-0.5740368516697077,-0.7061500165869842,0.39388279869207665,-0.12931208485351003,-0.32618782986553035,-0.7060234732175558,0.2437256012978271,-0.8910625494507942,0.07440023981776162,-0.2380503674865242,0.04143036501478625,-0.2518620142398739,0.42486508183701177,0.6186455128225551,-0.17752556697400385,0.04997844738761453,-1.076219602657281,0.015056551693569016,0.5265129588367272,0.1001068746645849,0.059470761378714015,-0.10149295458939608,-0.17188439313387385,-0.6482710410132897,-0.8810762532880582,-0.17658062939943103,-0.3344619002841285,0.2582237559667402],[0.4810177161902984,-0.22131670853364613,0.10617553326701226,0.06672867776740117,-0.5801103370474661,0.611529469597764,0.3284482205927142,0.12001310192506505,0.28157756096178554,0.2811081104455693,0.14395440626056252,0.7199821686355251,1.6432995090871332,0.25783546712623034,0.38471860104899314,-0.3415863035441512,0.700203714913285,0.37291218291335715,0.17740819947278763,0.14771493503003252,0.09213950991889912,0.013507781100659913,0.09971086383199303,-1.1128335814061312,0.24781842566648837,0.13913188609390112,0.11100330620073484,-0.2365681056196368,0.9664423766236145,0.28425765772800804,0.2986207500022661,-0.559429108284051,-0.136283209202594,0.48162101785504,0.22196225841910797,-0.0841383426746441,0.5501671912468042,1.131166222941815,0.23336537659502943,0.1602439964919791]]},{"b":[1.215275443640874,-1.8253566367122365,-0.3232379699431211,-1.5900115943027315,0.7078060507631336,2.0812419199404326,0.7398951281553687,0.3030372137745543,0.36996905559312476,0.8801599943655778],"w":[[-0.03037202311549129,0.08703009021414813,0.08632160442021895,0.03349677727642703,0.6204315413401997,-0.09210245113870637,-0.14996512021627853,0.45572973908695963,0.6284352600072558,-0.09841172543093753],[0.3153535145493502,0.10906763472898716,0.3310336386450046,0.0903724718069234,-0.05886087369612988,0.500165434125641,0.5469770788426639,-0.19477593768622392,-0.7218070333165265,-0.1289171521600123],[0.018190263911031034,-0.06021398642895695,0.13339003323388274,0.13769685667753992,-0.09298649197011634,0.2651546509704807,-0.8117796300507534,-0.19203206095708455,-0.5128695960968149,-0.10797450835673765],[1.0200853049171799,-0.020364083065598143,0.017543513371358288,0.49578086817349815,-0.35746967879204894,0.8337381014607022,-0.1365550555395599,0.043388294534673154,-1.3010948881794036,0.04008110034262059],[-0.1511537092416783,0.01168912313537658,0.228813558911516,0.31608075531463625,-0.8143495884390474,0.0667266271887791,-0.047154612557630864,0.39349570731514094,0.38757835491541237,0.09009461581949656],[-0.29198098330836203,-0.25183318313592407,0.19764693684223472,0.6918221820163168,0.23906248006727462,-0.12952336312727858,0.14471880617870628,-0.031857666149125316,0.019060431463887292,0.05803227964960773],[-0.1628073512933734,-0.06544889089441157,-0.22266951198530954,0.46620946840950017,0.7671375646810754,1.0898463042861377,-0.3115187475231447,0.09306067772343617,0.42434091510360183,-0.21259180733369024],[0.002611440835397752,-0.207224980050294,0.2260933155381642,0.23769492977473583,0.3753432803004635,-0.08332753635129327,-1.2000438595630483,0.4813252771593523,-0.03606639403232867,-0.4478490989711304],[-0.8264206071870983,-0.6407632583187743,-0.9032448570976168,0.035884313867853936,-0.06545677210107102,-0.07642348435984551,0.13821534832785412,0.8146230299361787,0.03852032071514892,0.29425404475110245],[0.20233777254996618,0.012368634100555269,0.02344512951042775,-0.8267274738777219,0.2597133701332269,0.13594746786087583,-0.02979620393284529,9.728558151269025E-4,0.6526505830673199,-0.7074713772263608],[1.2407860672518398,0.08859586926163536,0.06855026999786527,0.16405913168252964,0.2074570339018484,0.03609928546019233,0.0990760481420334,0.12901316830919443,-0.0051941547467547955,0.014972710783218624],[-0.38124254148855724,0.2060780677145574,-0.017382450392389656,-0.2214044142923249,0.8536286666483364,0.8361288158735964,-0.968249922458591,-0.10727305677545419,-0.15474739793670328,0.1298347351059219],[-0.17124946258118004,-0.21242119640516932,0.01810422729310086,-0.097783748840931,0.032642369064816074,-0.16069020156829694,0.04895446118521351,-1.467655499373309,0.09622195481108434,0.9309095886997218],[-0.16542352704068575,-0.16818436842578358,0.07850249232078838,-0.37141914196883846,0.2212805399958609,-0.4888451767687971,0.3445836452643428,-0.6035268971762631,-0.08046696669214837,-0.0883364091145025],[-0.8185281794743869,-0.2749844191025921,0.44473004158293317,-0.14864601257171436,0.03545150820782683,0.19220948156608633,-0.15787743226908618,-0.522828864368369,0.002145916665385236,0.1708508552719532],[0.2108600140890507,-0.9306223803624718,-0.10961978133273494,-0.33225141014706205,-0.15374864747971262,0.04562386989169385,0.24438134929088587,0.11835759210383989,0.058485702490443145,-0.725554126395989],[0.37836627567989656,-1.0438987551669525,-0.4099467537059143,-0.10588577812687702,0.8930447615792465,-0.15802998179960506,-0.21338822056697404,-0.8774420819994583,0.1521107258323822,-0.184503891445651],[-0.22818641934893585,0.01565939654759084,-0.2736155012360478,0.34818433930288306,-0.19588441095348252,-0.4901917300288258,-0.10936853504758422,-0.16759635718662147,0.007722770316061056,0.8037152410873918],[-0.1332661450710772,0.18285719688838825,0.7490664161771355,0.5213962354041964,0.16735293522606073,0.8860285093593637,0.9912150837275026,0.216541005993829,-0.04400389243415683,-0.0885834680931938],[0.024030194932705893,-0.2837131886900165,-0.20125223588767183,0.1542184842829938,0.13584842599153188,0.16080736690174002,0.07851804517080847,0.1473391242856127,-0.011290006820124,0.5510629484826723],[-1.721663434644154,0.09072240816380966,-0.963005759995917,-0.30029261515200667,-0.49239670173420225,0.048173537622573585,-0.36162971660334386,-0.2747815475998592,-0.068349498952235,-0.40774244358460626],[-0.07454948964015239,0.05285947323796085,0.3668937614318781,0.18939954682597168,0.6258172402905797,2.172653995794371,-0.12478900336331354,-0.1924395003037331,0.17546690850993324,0.19800217143413604],[-0.25433092056813145,0.21517010142219245,-0.998515741651198,-0.7801089038357127,0.8716932677611194,-0.1924512918608865,-0.5008449386431388,-0.2532924207095294,0.09426871492075757,-0.356793563465998],[0.34625091378421974,0.029348582404238256,-0.5726355967547333,0.7688109092563902,-0.226271638092014,0.8699659416788784,-0.1317775749294875,-0.31573120149926764,0.09752023197767011,0.28333204885799507],[-0.0820856398257386,-0.015800486742947737,0.19685089340125525,-0.901152124364709,0.06125682545076594,-0.19255964062529052,0.4030019356853697,0.18924831308910645,0.48009048838760626,0.11764874119879241],[0.0837674716048019,-0.6916002633428671,-1.012376907092892,0.1075566188051762,0.5557456754939849,-0.7402093460267137,-0.7989797890687376,-0.11373268387941417,0.19278596624756159,0.018463041614966282],[-0.04689946780978555,0.06693816377164992,-0.010305641497209037,-0.056061882898528766,0.8868947176903761,0.03254891373820032,0.2721763425330906,-0.2986968739898639,-0.28766066160047005,-0.19083828428306615],[0.08627438830420645,0.1840177864046744,1.1118443276514394,-0.14514515492896338,-0.09227092571200478,0.0478339626113895,-0.448033047192508,-0.4545645530957638,-1.0043401429420433,0.3024285755404511],[0.08056391676228694,0.06193350779761145,0.04187229624795216,0.017633810978851208,0.006539756711320677,-0.6053154266791714,-0.14291359391920458,-0.29326089471212813,0.9517426819646041,0.33567709716085553],[0.12999767360654443,-0.4737111314232838,-0.9884082404824996,0.7901522503277852,1.0605815498086932,-0.7492125675886869,-0.7142868124598036,-0.12677819810702456,0.5101343636525832,0.014160568890323664],[0.04123213769270704,-0.8632037617852915,0.06875942509286713,0.6149935228677026,-0.19813892840078912,-0.0838565357891221,0.16486193459302786,0.1810133772346724,0.06820813249848787,0.0412608742993988],[0.1714471857143649,0.8694186936489217,0.02488551339214842,-0.4632633983042056,0.2620657488361761,-2.2043151402940686,-0.023671731243263505,0.12437679981811979,-0.18315422542157764,0.1641567869066897],[-0.8400485133175839,-0.24390189985966781,-0.02307857962243648,-0.01894195334226901,-0.14973039263667465,0.03053615405252115,0.16128084831070605,0.007991668058119341,-0.6741284894049469,0.05348376121586977],[0.040894206478869176,0.029621503972490613,-0.030037061597541978,-0.05560424314298196,-0.696565352671843,-1.0000892147941656,-0.026433803546757267,-0.7657677081033654,0.26453969908278824,-0.023193806833803156],[-0.0837710949322861,-0.12959885203933078,0.6999501689461851,0.022251352681688485,0.8862621425651449,-0.0802334087136973,0.08796397841554784,0.045853343378939426,0.17523148749721848,0.058611557637958715],[-0.054938825500994305,-0.9019504645553553,-0.20981040409265198,-0.40831955450609425,0.7919253047564464,0.25598244211732585,0.9785323707672522,0.1961008762535603,0.09974530631317341,0.08243252304493226],[0.06636958083299913,1.2539999234276287,-1.2146573597294434,0.5738276943285006,-0.07305896111602331,-0.162807316301309,-0.3844857922804799,-0.524098983452634,0.15758137588985138,0.13767561004764112],[0.605138372108371,0.08044416795227231,0.31393066357248406,-0.041332052994441204,0.06098381761137986,0.2675997170623744,0.7858959697187179,0.15868847302664277,0.29745923785453215,-0.04642021981621665],[-0.3945849816733405,0.09758098284855056,-0.08244194158811712,-0.13086267562483847,-0.41818527760698837,0.04902590687744289,-0.04493072886491104,0.16917874844842667,2.3481014476073034E-5,0.3440160711428706],[0.014828568888818996,-1.2874251994117827,-0.017665216612543024,-0.11025817454986275,0.18605676740219682,-0.29978790066579664,-0.09002285361799124,0.06520664131210589,-0.36403590278091646,0.012745725207452104]]},{"b":[-0.6273886116032715,-0.9794103153105899],"w":[[-0.7300683216358811,0.028169682418092853],[-0.10026692668857662,0.03830605238901087],[-0.7535493784087128,0.07873491356636005],[0.4964572330337949,0.2900365044057462],[0.012532578606121864,-0.25408412096340827],[0.3619895842409241,-0.15611426875020618],[-0.20741084309644414,0.68157033086027],[-0.5364815251268,1.7202557368787434],[1.8408903036636315,0.4449677048986732],[-0.07424338350971049,0.17232962645496858]]}],"dimensions":[9,20,40,10,2]}
